digraph Tree {
node [shape=box, style="filled, rounded", color="black", fontname="helvetica"] ;
edge [fontname="helvetica"] ;
0 [label="T2 <= 19.253\nsquared_error = 10636.428\nsamples = 15788\nvalue = 97.95", fillcolor="#fdf5ef"] ;
1 [label="T4 <= 20.012\nsquared_error = 8192.62\nsamples = 5315\nvalue = 78.719", fillcolor="#fdf7f2"] ;
0 -> 1 [labeldistance=2.5, labelangle=45, headlabel="True"] ;
2 [label="T2 <= 17.936\nsquared_error = 11029.588\nsamples = 3487\nvalue = 84.99", fillcolor="#fdf6f1"] ;
1 -> 2 ;
3 [label="T5 <= 15.494\nsquared_error = 8294.311\nsamples = 1414\nvalue = 74.25", fillcolor="#fdf7f3"] ;
2 -> 3 ;
4 [label="T4 <= 16.028\nsquared_error = 25243.056\nsamples = 96\nvalue = 140.833", fillcolor="#fcf0e7"] ;
3 -> 4 ;
5 [label="T1 <= 17.613\nsquared_error = 4412.79\nsamples = 82\nvalue = 95.122", fillcolor="#fdf5ef"] ;
4 -> 5 ;
6 [label="T4 <= 15.63\nsquared_error = 4144.856\nsamples = 49\nvalue = 129.796", fillcolor="#fcf1e9"] ;
5 -> 6 ;
7 [label="Tdewpoint <= 6.583\nsquared_error = 3104.167\nsamples = 48\nvalue = 125.0", fillcolor="#fcf1ea"] ;
6 -> 7 ;
8 [label="T6 <= 5.883\nsquared_error = 2080.789\nsamples = 37\nvalue = 109.459", fillcolor="#fdf3ed"] ;
7 -> 8 ;
9 [label="T4 <= 15.282\nsquared_error = 1622.222\nsamples = 3\nvalue = 186.667", fillcolor="#fbeade"] ;
8 -> 9 ;
10 [label="Tdewpoint <= 5.592\nsquared_error = 1600.0\nsamples = 2\nvalue = 170.0", fillcolor="#fbece1"] ;
9 -> 10 ;
11 [label="squared_error = 0.0\nsamples = 1\nvalue = 130.0", fillcolor="#fcf1e9"] ;
10 -> 11 ;
12 [label="squared_error = 0.0\nsamples = 1\nvalue = 210.0", fillcolor="#fae7da"] ;
10 -> 12 ;
13 [label="squared_error = 0.0\nsamples = 1\nvalue = 220.0", fillcolor="#fae6d8"] ;
9 -> 13 ;
14 [label="T3 <= 18.459\nsquared_error = 1548.875\nsamples = 34\nvalue = 102.647", fillcolor="#fdf4ee"] ;
8 -> 14 ;
15 [label="Total_Temperature <= 15.171\nsquared_error = 1165.84\nsamples = 33\nvalue = 99.091", fillcolor="#fdf5ef"] ;
14 -> 15 ;
16 [label="Tdewpoint <= 4.917\nsquared_error = 910.204\nsamples = 21\nvalue = 115.714", fillcolor="#fcf3eb"] ;
15 -> 16 ;
17 [label="Total_Temperature <= 15.056\nsquared_error = 155.556\nsamples = 3\nvalue = 73.333", fillcolor="#fdf8f3"] ;
16 -> 17 ;
18 [label="T_out <= 5.125\nsquared_error = 25.0\nsamples = 2\nvalue = 65.0", fillcolor="#fef9f5"] ;
17 -> 18 ;
19 [label="squared_error = 0.0\nsamples = 1\nvalue = 70.0", fillcolor="#fef8f4"] ;
18 -> 19 ;
20 [label="squared_error = 0.0\nsamples = 1\nvalue = 60.0", fillcolor="#fef9f6"] ;
18 -> 20 ;
21 [label="squared_error = 0.0\nsamples = 1\nvalue = 90.0", fillcolor="#fdf6f0"] ;
17 -> 21 ;
22 [label="T_out <= 5.575\nsquared_error = 686.728\nsamples = 18\nvalue = 122.778", fillcolor="#fcf2ea"] ;
16 -> 22 ;
23 [label="Total_Temperature <= 15.078\nsquared_error = 3025.0\nsamples = 2\nvalue = 165.0", fillcolor="#fbede2"] ;
22 -> 23 ;
24 [label="squared_error = 0.0\nsamples = 1\nvalue = 220.0", fillcolor="#fae6d8"] ;
23 -> 24 ;
25 [label="squared_error = 0.0\nsamples = 1\nvalue = 110.0", fillcolor="#fdf3ec"] ;
23 -> 25 ;
26 [label="Tdewpoint <= 5.567\nsquared_error = 143.75\nsamples = 16\nvalue = 117.5", fillcolor="#fcf2eb"] ;
22 -> 26 ;
27 [label="T2 <= 16.313\nsquared_error = 25.0\nsamples = 2\nvalue = 95.0", fillcolor="#fdf5ef"] ;
26 -> 27 ;
28 [label="squared_error = 0.0\nsamples = 1\nvalue = 90.0", fillcolor="#fdf6f0"] ;
27 -> 28 ;
29 [label="squared_error = 0.0\nsamples = 1\nvalue = 100.0", fillcolor="#fdf4ee"] ;
27 -> 29 ;
30 [label="T_out <= 6.742\nsquared_error = 78.061\nsamples = 14\nvalue = 120.714", fillcolor="#fcf2eb"] ;
26 -> 30 ;
31 [label="T6 <= 7.33\nsquared_error = 68.75\nsamples = 12\nvalue = 122.5", fillcolor="#fcf2ea"] ;
30 -> 31 ;
32 [label="T6 <= 7.208\nsquared_error = 44.628\nsamples = 11\nvalue = 120.909", fillcolor="#fcf2ea"] ;
31 -> 32 ;
33 [label="Tdewpoint <= 6.258\nsquared_error = 36.0\nsamples = 10\nvalue = 122.0", fillcolor="#fcf2ea"] ;
32 -> 33 ;
34 [label="T6 <= 5.997\nsquared_error = 25.0\nsamples = 8\nvalue = 120.0", fillcolor="#fcf2eb"] ;
33 -> 34 ;
35 [label="squared_error = 0.0\nsamples = 1\nvalue = 130.0", fillcolor="#fcf1e9"] ;
34 -> 35 ;
36 [label="T1 <= 17.05\nsquared_error = 12.245\nsamples = 7\nvalue = 118.571", fillcolor="#fcf2eb"] ;
34 -> 36 ;
37 [label="Total_Temperature <= 15.09\nsquared_error = 22.222\nsamples = 3\nvalue = 116.667", fillcolor="#fcf2eb"] ;
36 -> 37 ;
38 [label="squared_error = 0.0\nsamples = 1\nvalue = 110.0", fillcolor="#fdf3ec"] ;
37 -> 38 ;
39 [label="squared_error = 0.0\nsamples = 2\nvalue = 120.0", fillcolor="#fcf2eb"] ;
37 -> 39 ;
40 [label="squared_error = 0.0\nsamples = 4\nvalue = 120.0", fillcolor="#fcf2eb"] ;
36 -> 40 ;
41 [label="squared_error = 0.0\nsamples = 2\nvalue = 130.0", fillcolor="#fcf1e9"] ;
33 -> 41 ;
42 [label="squared_error = 0.0\nsamples = 1\nvalue = 110.0", fillcolor="#fdf3ec"] ;
32 -> 42 ;
43 [label="squared_error = 0.0\nsamples = 1\nvalue = 140.0", fillcolor="#fcf0e7"] ;
31 -> 43 ;
44 [label="squared_error = 0.0\nsamples = 2\nvalue = 110.0", fillcolor="#fdf3ec"] ;
30 -> 44 ;
45 [label="T3 <= 17.373\nsquared_error = 283.333\nsamples = 12\nvalue = 70.0", fillcolor="#fef8f4"] ;
15 -> 45 ;
46 [label="T1 <= 17.045\nsquared_error = 40.816\nsamples = 7\nvalue = 78.571", fillcolor="#fdf7f2"] ;
45 -> 46 ;
47 [label="T4 <= 15.175\nsquared_error = 22.222\nsamples = 6\nvalue = 76.667", fillcolor="#fdf7f3"] ;
46 -> 47 ;
48 [label="Total_Temperature <= 15.175\nsquared_error = 16.0\nsamples = 5\nvalue = 78.0", fillcolor="#fdf7f2"] ;
47 -> 48 ;
49 [label="squared_error = 0.0\nsamples = 1\nvalue = 70.0", fillcolor="#fef8f4"] ;
48 -> 49 ;
50 [label="squared_error = 0.0\nsamples = 4\nvalue = 80.0", fillcolor="#fdf7f2"] ;
48 -> 50 ;
51 [label="squared_error = 0.0\nsamples = 1\nvalue = 70.0", fillcolor="#fef8f4"] ;
47 -> 51 ;
52 [label="squared_error = 0.0\nsamples = 1\nvalue = 90.0", fillcolor="#fdf6f0"] ;
46 -> 52 ;
53 [label="T2 <= 16.944\nsquared_error = 376.0\nsamples = 5\nvalue = 58.0", fillcolor="#fef9f6"] ;
45 -> 53 ;
54 [label="T4 <= 15.16\nsquared_error = 22.222\nsamples = 3\nvalue = 43.333", fillcolor="#fefbf9"] ;
53 -> 54 ;
55 [label="squared_error = 0.0\nsamples = 1\nvalue = 50.0", fillcolor="#fefaf8"] ;
54 -> 55 ;
56 [label="squared_error = 0.0\nsamples = 2\nvalue = 40.0", fillcolor="#fefbf9"] ;
54 -> 56 ;
57 [label="T1 <= 17.393\nsquared_error = 100.0\nsamples = 2\nvalue = 80.0", fillcolor="#fdf7f2"] ;
53 -> 57 ;
58 [label="squared_error = 0.0\nsamples = 1\nvalue = 90.0", fillcolor="#fdf6f0"] ;
57 -> 58 ;
59 [label="squared_error = 0.0\nsamples = 1\nvalue = 70.0", fillcolor="#fef8f4"] ;
57 -> 59 ;
60 [label="squared_error = 0.0\nsamples = 1\nvalue = 220.0", fillcolor="#fae6d8"] ;
14 -> 60 ;
61 [label="Total_Temperature <= 15.148\nsquared_error = 3001.653\nsamples = 11\nvalue = 177.273", fillcolor="#fbebe0"] ;
7 -> 61 ;
62 [label="squared_error = 0.0\nsamples = 2\nvalue = 250.0", fillcolor="#f9e3d3"] ;
61 -> 62 ;
63 [label="T_out <= 7.442\nsquared_error = 2232.099\nsamples = 9\nvalue = 161.111", fillcolor="#fbede3"] ;
61 -> 63 ;
64 [label="T_out <= 7.125\nsquared_error = 322.222\nsamples = 6\nvalue = 136.667", fillcolor="#fcf0e8"] ;
63 -> 64 ;
65 [label="squared_error = 0.0\nsamples = 1\nvalue = 100.0", fillcolor="#fdf4ee"] ;
64 -> 65 ;
66 [label="T9 <= 15.033\nsquared_error = 64.0\nsamples = 5\nvalue = 144.0", fillcolor="#fcefe6"] ;
64 -> 66 ;
67 [label="Total_Temperature <= 15.208\nsquared_error = 25.0\nsamples = 2\nvalue = 135.0", fillcolor="#fcf0e8"] ;
66 -> 67 ;
68 [label="squared_error = 0.0\nsamples = 1\nvalue = 140.0", fillcolor="#fcf0e7"] ;
67 -> 68 ;
69 [label="squared_error = 0.0\nsamples = 1\nvalue = 130.0", fillcolor="#fcf1e9"] ;
67 -> 69 ;
70 [label="squared_error = 0.0\nsamples = 3\nvalue = 150.0", fillcolor="#fcefe5"] ;
66 -> 70 ;
71 [label="T3 <= 17.307\nsquared_error = 2466.667\nsamples = 3\nvalue = 210.0", fillcolor="#fae7da"] ;
63 -> 71 ;
72 [label="squared_error = 0.0\nsamples = 1\nvalue = 170.0", fillcolor="#fbece1"] ;
71 -> 72 ;
73 [label="T6 <= 8.633\nsquared_error = 2500.0\nsamples = 2\nvalue = 230.0", fillcolor="#fae5d6"] ;
71 -> 73 ;
74 [label="squared_error = 0.0\nsamples = 1\nvalue = 280.0", fillcolor="#f8dfcd"] ;
73 -> 74 ;
75 [label="squared_error = 0.0\nsamples = 1\nvalue = 180.0", fillcolor="#fbebe0"] ;
73 -> 75 ;
76 [label="squared_error = 0.0\nsamples = 1\nvalue = 360.0", fillcolor="#f6d6be"] ;
6 -> 76 ;
77 [label="T9 <= 15.095\nsquared_error = 374.656\nsamples = 33\nvalue = 43.636", fillcolor="#fefbf9"] ;
5 -> 77 ;
78 [label="T2 <= 17.563\nsquared_error = 168.75\nsamples = 4\nvalue = 87.5", fillcolor="#fdf6f1"] ;
77 -> 78 ;
79 [label="T3 <= 17.472\nsquared_error = 25.0\nsamples = 2\nvalue = 75.0", fillcolor="#fdf7f3"] ;
78 -> 79 ;
80 [label="squared_error = 0.0\nsamples = 1\nvalue = 70.0", fillcolor="#fef8f4"] ;
79 -> 80 ;
81 [label="squared_error = 0.0\nsamples = 1\nvalue = 80.0", fillcolor="#fdf7f2"] ;
79 -> 81 ;
82 [label="squared_error = 0.0\nsamples = 2\nvalue = 100.0", fillcolor="#fdf4ee"] ;
78 -> 82 ;
83 [label="T3 <= 18.408\nsquared_error = 101.07\nsamples = 29\nvalue = 37.586", fillcolor="#fefcfa"] ;
77 -> 83 ;
84 [label="T_out <= 5.375\nsquared_error = 77.066\nsamples = 22\nvalue = 40.455", fillcolor="#fefbf9"] ;
83 -> 84 ;
85 [label="T1 <= 18.55\nsquared_error = 150.0\nsamples = 4\nvalue = 30.0", fillcolor="#fffdfb"] ;
84 -> 85 ;
86 [label="Total_Temperature <= 15.7\nsquared_error = 22.222\nsamples = 3\nvalue = 23.333", fillcolor="#fffdfd"] ;
85 -> 86 ;
87 [label="squared_error = 0.0\nsamples = 2\nvalue = 20.0", fillcolor="#fffefd"] ;
86 -> 87 ;
88 [label="squared_error = 0.0\nsamples = 1\nvalue = 30.0", fillcolor="#fffdfb"] ;
86 -> 88 ;
89 [label="squared_error = 0.0\nsamples = 1\nvalue = 50.0", fillcolor="#fefaf8"] ;
85 -> 89 ;
90 [label="Total_Temperature <= 15.624\nsquared_error = 31.173\nsamples = 18\nvalue = 42.778", fillcolor="#fefbf9"] ;
84 -> 90 ;
91 [label="T2 <= 17.245\nsquared_error = 29.0\nsamples = 10\nvalue = 41.0", fillcolor="#fefbf9"] ;
90 -> 91 ;
92 [label="T5 <= 15.388\nsquared_error = 18.75\nsamples = 8\nvalue = 42.5", fillcolor="#fefbf9"] ;
91 -> 92 ;
93 [label="squared_error = 0.0\nsamples = 5\nvalue = 40.0", fillcolor="#fefbf9"] ;
92 -> 93 ;
94 [label="T6 <= 6.483\nsquared_error = 22.222\nsamples = 3\nvalue = 46.667", fillcolor="#fefbf8"] ;
92 -> 94 ;
95 [label="squared_error = 0.0\nsamples = 2\nvalue = 50.0", fillcolor="#fefaf8"] ;
94 -> 95 ;
96 [label="squared_error = 0.0\nsamples = 1\nvalue = 40.0", fillcolor="#fefbf9"] ;
94 -> 96 ;
97 [label="T4 <= 15.745\nsquared_error = 25.0\nsamples = 2\nvalue = 35.0", fillcolor="#fefcfa"] ;
91 -> 97 ;
98 [label="squared_error = 0.0\nsamples = 1\nvalue = 30.0", fillcolor="#fffdfb"] ;
97 -> 98 ;
99 [label="squared_error = 0.0\nsamples = 1\nvalue = 40.0", fillcolor="#fefbf9"] ;
97 -> 99 ;
100 [label="Total_Temperature <= 15.641\nsquared_error = 25.0\nsamples = 8\nvalue = 45.0", fillcolor="#fefbf9"] ;
90 -> 100 ;
101 [label="T1 <= 18.245\nsquared_error = 22.222\nsamples = 6\nvalue = 46.667", fillcolor="#fefbf8"] ;
100 -> 101 ;
102 [label="T6 <= 5.832\nsquared_error = 25.0\nsamples = 4\nvalue = 45.0", fillcolor="#fefbf9"] ;
101 -> 102 ;
103 [label="squared_error = 0.0\nsamples = 1\nvalue = 40.0", fillcolor="#fefbf9"] ;
102 -> 103 ;
104 [label="T9 <= 15.345\nsquared_error = 22.222\nsamples = 3\nvalue = 46.667", fillcolor="#fefbf8"] ;
102 -> 104 ;
105 [label="squared_error = 0.0\nsamples = 1\nvalue = 50.0", fillcolor="#fefaf8"] ;
104 -> 105 ;
106 [label="Tdewpoint <= 4.65\nsquared_error = 25.0\nsamples = 2\nvalue = 45.0", fillcolor="#fefbf9"] ;
104 -> 106 ;
107 [label="squared_error = 0.0\nsamples = 1\nvalue = 40.0", fillcolor="#fefbf9"] ;
106 -> 107 ;
108 [label="squared_error = 0.0\nsamples = 1\nvalue = 50.0", fillcolor="#fefaf8"] ;
106 -> 108 ;
109 [label="squared_error = 0.0\nsamples = 2\nvalue = 50.0", fillcolor="#fefaf8"] ;
101 -> 109 ;
110 [label="squared_error = 0.0\nsamples = 2\nvalue = 40.0", fillcolor="#fefbf9"] ;
100 -> 110 ;
111 [label="T6 <= 6.45\nsquared_error = 69.388\nsamples = 7\nvalue = 28.571", fillcolor="#fffdfc"] ;
83 -> 111 ;
112 [label="T9 <= 15.463\nsquared_error = 24.0\nsamples = 5\nvalue = 24.0", fillcolor="#fffdfc"] ;
111 -> 112 ;
113 [label="Total_Temperature <= 15.633\nsquared_error = 18.75\nsamples = 4\nvalue = 22.5", fillcolor="#fffefd"] ;
112 -> 113 ;
114 [label="squared_error = 0.0\nsamples = 2\nvalue = 20.0", fillcolor="#fffefd"] ;
113 -> 114 ;
115 [label="Total_Temperature <= 15.637\nsquared_error = 25.0\nsamples = 2\nvalue = 25.0", fillcolor="#fffdfc"] ;
113 -> 115 ;
116 [label="squared_error = 0.0\nsamples = 1\nvalue = 30.0", fillcolor="#fffdfb"] ;
115 -> 116 ;
117 [label="squared_error = 0.0\nsamples = 1\nvalue = 20.0", fillcolor="#fffefd"] ;
115 -> 117 ;
118 [label="squared_error = 0.0\nsamples = 1\nvalue = 30.0", fillcolor="#fffdfb"] ;
112 -> 118 ;
119 [label="squared_error = 0.0\nsamples = 2\nvalue = 40.0", fillcolor="#fefbf9"] ;
111 -> 119 ;
120 [label="T1 <= 17.978\nsquared_error = 63326.531\nsamples = 14\nvalue = 408.571", fillcolor="#f5d0b5"] ;
4 -> 120 ;
121 [label="T5 <= 15.355\nsquared_error = 25622.222\nsamples = 6\nvalue = 666.667", fillcolor="#efb285"] ;
120 -> 121 ;
122 [label="squared_error = 0.0\nsamples = 1\nvalue = 360.0", fillcolor="#f6d6be"] ;
121 -> 122 ;
123 [label="T_out <= 6.308\nsquared_error = 8176.0\nsamples = 5\nvalue = 728.0", fillcolor="#eeaa7a"] ;
121 -> 123 ;
124 [label="squared_error = 0.0\nsamples = 1\nvalue = 590.0", fillcolor="#f1bb94"] ;
123 -> 124 ;
125 [label="Tdewpoint <= 5.675\nsquared_error = 4268.75\nsamples = 4\nvalue = 762.5", fillcolor="#eda674"] ;
123 -> 125 ;
126 [label="squared_error = 0.0\nsamples = 1\nvalue = 850.0", fillcolor="#eb9c64"] ;
125 -> 126 ;
127 [label="T5 <= 15.38\nsquared_error = 2288.889\nsamples = 3\nvalue = 733.333", fillcolor="#edaa79"] ;
125 -> 127 ;
128 [label="squared_error = 0.0\nsamples = 1\nvalue = 800.0", fillcolor="#eca26d"] ;
127 -> 128 ;
129 [label="T_out <= 6.517\nsquared_error = 100.0\nsamples = 2\nvalue = 700.0", fillcolor="#eeae7f"] ;
127 -> 129 ;
130 [label="squared_error = 0.0\nsamples = 1\nvalue = 690.0", fillcolor="#eeaf81"] ;
129 -> 130 ;
131 [label="squared_error = 0.0\nsamples = 1\nvalue = 710.0", fillcolor="#eead7d"] ;
129 -> 131 ;
132 [label="Total_Temperature <= 16.176\nsquared_error = 4175.0\nsamples = 8\nvalue = 215.0", fillcolor="#fae7d9"] ;
120 -> 132 ;
133 [label="T3 <= 19.392\nsquared_error = 2104.0\nsamples = 5\nvalue = 254.0", fillcolor="#f9e2d2"] ;
132 -> 133 ;
134 [label="T1 <= 18.52\nsquared_error = 625.0\nsamples = 2\nvalue = 205.0", fillcolor="#fae8db"] ;
133 -> 134 ;
135 [label="squared_error = 0.0\nsamples = 1\nvalue = 230.0", fillcolor="#fae5d6"] ;
134 -> 135 ;
136 [label="squared_error = 0.0\nsamples = 1\nvalue = 180.0", fillcolor="#fbebe0"] ;
134 -> 136 ;
137 [label="Tdewpoint <= 5.65\nsquared_error = 422.222\nsamples = 3\nvalue = 286.667", fillcolor="#f8decc"] ;
133 -> 137 ;
138 [label="squared_error = 0.0\nsamples = 1\nvalue = 260.0", fillcolor="#f9e2d1"] ;
137 -> 138 ;
139 [label="T6 <= 6.428\nsquared_error = 100.0\nsamples = 2\nvalue = 300.0", fillcolor="#f8ddc9"] ;
137 -> 139 ;
140 [label="squared_error = 0.0\nsamples = 1\nvalue = 290.0", fillcolor="#f8decb"] ;
139 -> 140 ;
141 [label="squared_error = 0.0\nsamples = 1\nvalue = 310.0", fillcolor="#f8dcc7"] ;
139 -> 141 ;
142 [label="T1 <= 18.23\nsquared_error = 866.667\nsamples = 3\nvalue = 150.0", fillcolor="#fcefe5"] ;
132 -> 142 ;
143 [label="squared_error = 0.0\nsamples = 1\nvalue = 190.0", fillcolor="#fbeade"] ;
142 -> 143 ;
144 [label="T2 <= 17.617\nsquared_error = 100.0\nsamples = 2\nvalue = 130.0", fillcolor="#fcf1e9"] ;
142 -> 144 ;
145 [label="squared_error = 0.0\nsamples = 1\nvalue = 120.0", fillcolor="#fcf2eb"] ;
144 -> 145 ;
146 [label="squared_error = 0.0\nsamples = 1\nvalue = 140.0", fillcolor="#fcf0e7"] ;
144 -> 146 ;
147 [label="Tdewpoint <= 2.625\nsquared_error = 6713.374\nsamples = 1318\nvalue = 69.401", fillcolor="#fef8f4"] ;
3 -> 147 ;
148 [label="T9 <= 15.55\nsquared_error = 7561.679\nsamples = 1139\nvalue = 73.512", fillcolor="#fdf8f3"] ;
147 -> 148 ;
149 [label="Total_Temperature <= 15.232\nsquared_error = 60850.0\nsamples = 8\nvalue = 320.0", fillcolor="#f7dac6"] ;
148 -> 149 ;
150 [label="Tdewpoint <= -1.242\nsquared_error = 1225.0\nsamples = 4\nvalue = 115.0", fillcolor="#fcf3ec"] ;
149 -> 150 ;
151 [label="Total_Temperature <= 15.216\nsquared_error = 288.889\nsamples = 3\nvalue = 96.667", fillcolor="#fdf5ef"] ;
150 -> 151 ;
152 [label="T_out <= -0.025\nsquared_error = 25.0\nsamples = 2\nvalue = 85.0", fillcolor="#fdf6f1"] ;
151 -> 152 ;
153 [label="squared_error = 0.0\nsamples = 1\nvalue = 80.0", fillcolor="#fdf7f2"] ;
152 -> 153 ;
154 [label="squared_error = 0.0\nsamples = 1\nvalue = 90.0", fillcolor="#fdf6f0"] ;
152 -> 154 ;
155 [label="squared_error = 0.0\nsamples = 1\nvalue = 120.0", fillcolor="#fcf2eb"] ;
151 -> 155 ;
156 [label="squared_error = 0.0\nsamples = 1\nvalue = 170.0", fillcolor="#fbece1"] ;
150 -> 156 ;
157 [label="Total_Temperature <= 15.268\nsquared_error = 36425.0\nsamples = 4\nvalue = 525.0", fillcolor="#f2c2a0"] ;
149 -> 157 ;
158 [label="squared_error = 0.0\nsamples = 1\nvalue = 830.0", fillcolor="#eb9e67"] ;
157 -> 158 ;
159 [label="Total_Temperature <= 15.323\nsquared_error = 7222.222\nsamples = 3\nvalue = 423.333", fillcolor="#f5ceb3"] ;
157 -> 159 ;
160 [label="squared_error = 0.0\nsamples = 1\nvalue = 540.0", fillcolor="#f2c19d"] ;
159 -> 160 ;
161 [label="T_out <= -0.1\nsquared_error = 625.0\nsamples = 2\nvalue = 365.0", fillcolor="#f6d5bd"] ;
159 -> 161 ;
162 [label="squared_error = 0.0\nsamples = 1\nvalue = 340.0", fillcolor="#f7d8c2"] ;
161 -> 162 ;
163 [label="squared_error = 0.0\nsamples = 1\nvalue = 390.0", fillcolor="#f6d2b9"] ;
161 -> 163 ;
164 [label="T6 <= 8.012\nsquared_error = 6751.957\nsamples = 1131\nvalue = 71.768", fillcolor="#fdf8f4"] ;
148 -> 164 ;
165 [label="T6 <= 6.313\nsquared_error = 6273.416\nsamples = 1127\nvalue = 70.639", fillcolor="#fef8f4"] ;
164 -> 165 ;
166 [label="T3 <= 17.873\nsquared_error = 5496.344\nsamples = 1091\nvalue = 68.552", fillcolor="#fef8f4"] ;
165 -> 166 ;
167 [label="Total_Temperature <= 15.243\nsquared_error = 8088.889\nsamples = 3\nvalue = 286.667", fillcolor="#f8decc"] ;
166 -> 167 ;
168 [label="squared_error = 0.0\nsamples = 1\nvalue = 160.0", fillcolor="#fbede3"] ;
167 -> 168 ;
169 [label="Total_Temperature <= 15.26\nsquared_error = 100.0\nsamples = 2\nvalue = 350.0", fillcolor="#f7d7c0"] ;
167 -> 169 ;
170 [label="squared_error = 0.0\nsamples = 1\nvalue = 360.0", fillcolor="#f6d6be"] ;
169 -> 170 ;
171 [label="squared_error = 0.0\nsamples = 1\nvalue = 340.0", fillcolor="#f7d8c2"] ;
169 -> 171 ;
172 [label="Tdewpoint <= -4.842\nsquared_error = 5357.656\nsamples = 1088\nvalue = 67.95", fillcolor="#fef8f4"] ;
166 -> 172 ;
173 [label="Total_Temperature <= 16.245\nsquared_error = 159.127\nsamples = 86\nvalue = 42.674", fillcolor="#fefbf9"] ;
172 -> 173 ;
174 [label="Tdewpoint <= -5.758\nsquared_error = 120.809\nsamples = 71\nvalue = 39.437", fillcolor="#fefcfa"] ;
173 -> 174 ;
175 [label="T5 <= 17.15\nsquared_error = 52.949\nsamples = 27\nvalue = 43.704", fillcolor="#fefbf9"] ;
174 -> 175 ;
176 [label="T5 <= 16.917\nsquared_error = 24.96\nsamples = 25\nvalue = 45.2", fillcolor="#fefbf8"] ;
175 -> 176 ;
177 [label="Tdewpoint <= -5.908\nsquared_error = 20.408\nsamples = 14\nvalue = 42.857", fillcolor="#fefbf9"] ;
176 -> 177 ;
178 [label="squared_error = 0.0\nsamples = 3\nvalue = 50.0", fillcolor="#fefaf8"] ;
177 -> 178 ;
179 [label="T5 <= 16.887\nsquared_error = 8.264\nsamples = 11\nvalue = 40.909", fillcolor="#fefbf9"] ;
177 -> 179 ;
180 [label="squared_error = 0.0\nsamples = 8\nvalue = 40.0", fillcolor="#fefbf9"] ;
179 -> 180 ;
181 [label="Total_Temperature <= 15.363\nsquared_error = 22.222\nsamples = 3\nvalue = 43.333", fillcolor="#fefbf9"] ;
179 -> 181 ;
182 [label="squared_error = 0.0\nsamples = 1\nvalue = 50.0", fillcolor="#fefaf8"] ;
181 -> 182 ;
183 [label="squared_error = 0.0\nsamples = 2\nvalue = 40.0", fillcolor="#fefbf9"] ;
181 -> 183 ;
184 [label="Tdewpoint <= -6.158\nsquared_error = 14.876\nsamples = 11\nvalue = 48.182", fillcolor="#fefbf8"] ;
176 -> 184 ;
185 [label="squared_error = 0.0\nsamples = 2\nvalue = 40.0", fillcolor="#fefbf9"] ;
184 -> 185 ;
186 [label="squared_error = 0.0\nsamples = 9\nvalue = 50.0", fillcolor="#fefaf8"] ;
184 -> 186 ;
187 [label="T6 <= -5.807\nsquared_error = 25.0\nsamples = 2\nvalue = 25.0", fillcolor="#fffdfc"] ;
175 -> 187 ;
188 [label="squared_error = 0.0\nsamples = 1\nvalue = 30.0", fillcolor="#fffdfb"] ;
187 -> 188 ;
189 [label="squared_error = 0.0\nsamples = 1\nvalue = 20.0", fillcolor="#fffefd"] ;
187 -> 189 ;
190 [label="T5 <= 16.514\nsquared_error = 144.421\nsamples = 44\nvalue = 36.818", fillcolor="#fefcfa"] ;
174 -> 190 ;
191 [label="T5 <= 16.21\nsquared_error = 24.49\nsamples = 7\nvalue = 45.714", fillcolor="#fefbf8"] ;
190 -> 191 ;
192 [label="squared_error = 0.0\nsamples = 2\nvalue = 40.0", fillcolor="#fefbf9"] ;
191 -> 192 ;
193 [label="T6 <= -0.558\nsquared_error = 16.0\nsamples = 5\nvalue = 48.0", fillcolor="#fefbf8"] ;
191 -> 193 ;
194 [label="squared_error = 0.0\nsamples = 4\nvalue = 50.0", fillcolor="#fefaf8"] ;
193 -> 194 ;
195 [label="squared_error = 0.0\nsamples = 1\nvalue = 40.0", fillcolor="#fefbf9"] ;
193 -> 195 ;
196 [label="T6 <= -5.004\nsquared_error = 149.306\nsamples = 37\nvalue = 35.135", fillcolor="#fefcfa"] ;
190 -> 196 ;
197 [label="T_out <= -4.267\nsquared_error = 122.222\nsamples = 18\nvalue = 40.0", fillcolor="#fefbf9"] ;
196 -> 197 ;
198 [label="T4 <= 18.245\nsquared_error = 118.75\nsamples = 8\nvalue = 32.5", fillcolor="#fefcfb"] ;
197 -> 198 ;
199 [label="Tdewpoint <= -5.7\nsquared_error = 24.0\nsamples = 5\nvalue = 26.0", fillcolor="#fffdfc"] ;
198 -> 199 ;
200 [label="squared_error = 0.0\nsamples = 2\nvalue = 20.0", fillcolor="#fffefd"] ;
199 -> 200 ;
201 [label="squared_error = 0.0\nsamples = 3\nvalue = 30.0", fillcolor="#fffdfb"] ;
199 -> 201 ;
202 [label="Tdewpoint <= -5.733\nsquared_error = 88.889\nsamples = 3\nvalue = 43.333", fillcolor="#fefbf9"] ;
198 -> 202 ;
203 [label="squared_error = 0.0\nsamples = 2\nvalue = 50.0", fillcolor="#fefaf8"] ;
202 -> 203 ;
204 [label="squared_error = 0.0\nsamples = 1\nvalue = 30.0", fillcolor="#fffdfb"] ;
202 -> 204 ;
205 [label="T6 <= -5.027\nsquared_error = 44.0\nsamples = 10\nvalue = 46.0", fillcolor="#fefbf8"] ;
197 -> 205 ;
206 [label="T1 <= 18.613\nsquared_error = 23.438\nsamples = 8\nvalue = 43.75", fillcolor="#fefbf9"] ;
205 -> 206 ;
207 [label="squared_error = 0.0\nsamples = 3\nvalue = 50.0", fillcolor="#fefaf8"] ;
206 -> 207 ;
208 [label="squared_error = 0.0\nsamples = 5\nvalue = 40.0", fillcolor="#fefbf9"] ;
206 -> 208 ;
209 [label="T3 <= 19.68\nsquared_error = 25.0\nsamples = 2\nvalue = 55.0", fillcolor="#fefaf7"] ;
205 -> 209 ;
210 [label="squared_error = 0.0\nsamples = 1\nvalue = 60.0", fillcolor="#fef9f6"] ;
209 -> 210 ;
211 [label="squared_error = 0.0\nsamples = 1\nvalue = 50.0", fillcolor="#fefaf8"] ;
209 -> 211 ;
212 [label="T9 <= 16.745\nsquared_error = 131.302\nsamples = 19\nvalue = 30.526", fillcolor="#fffdfb"] ;
196 -> 212 ;
213 [label="T6 <= -3.611\nsquared_error = 124.306\nsamples = 12\nvalue = 34.167", fillcolor="#fefcfb"] ;
212 -> 213 ;
214 [label="T2 <= 17.323\nsquared_error = 85.938\nsamples = 8\nvalue = 28.75", fillcolor="#fffdfc"] ;
213 -> 214 ;
215 [label="squared_error = 0.0\nsamples = 2\nvalue = 40.0", fillcolor="#fefbf9"] ;
214 -> 215 ;
216 [label="T6 <= -4.564\nsquared_error = 58.333\nsamples = 6\nvalue = 25.0", fillcolor="#fffdfc"] ;
214 -> 216 ;
217 [label="T2 <= 17.373\nsquared_error = 66.667\nsamples = 3\nvalue = 30.0", fillcolor="#fffdfb"] ;
216 -> 217 ;
218 [label="squared_error = 0.0\nsamples = 1\nvalue = 40.0", fillcolor="#fefbf9"] ;
217 -> 218 ;
219 [label="T6 <= -4.811\nsquared_error = 25.0\nsamples = 2\nvalue = 25.0", fillcolor="#fffdfc"] ;
217 -> 219 ;
220 [label="squared_error = 0.0\nsamples = 1\nvalue = 30.0", fillcolor="#fffdfb"] ;
219 -> 220 ;
221 [label="squared_error = 0.0\nsamples = 1\nvalue = 20.0", fillcolor="#fffefd"] ;
219 -> 221 ;
222 [label="squared_error = 0.0\nsamples = 3\nvalue = 20.0", fillcolor="#fffefd"] ;
216 -> 222 ;
223 [label="T_out <= -1.333\nsquared_error = 25.0\nsamples = 4\nvalue = 45.0", fillcolor="#fefbf9"] ;
213 -> 223 ;
224 [label="squared_error = 0.0\nsamples = 2\nvalue = 50.0", fillcolor="#fefaf8"] ;
223 -> 224 ;
225 [label="squared_error = 0.0\nsamples = 2\nvalue = 40.0", fillcolor="#fefbf9"] ;
223 -> 225 ;
226 [label="Total_Temperature <= 15.714\nsquared_error = 81.633\nsamples = 7\nvalue = 24.286", fillcolor="#fffdfc"] ;
212 -> 226 ;
227 [label="squared_error = 0.0\nsamples = 1\nvalue = 40.0", fillcolor="#fefbf9"] ;
226 -> 227 ;
228 [label="Total_Temperature <= 15.724\nsquared_error = 47.222\nsamples = 6\nvalue = 21.667", fillcolor="#fffefd"] ;
226 -> 228 ;
229 [label="squared_error = 0.0\nsamples = 1\nvalue = 10.0", fillcolor="#ffffff"] ;
228 -> 229 ;
230 [label="Total_Temperature <= 15.952\nsquared_error = 24.0\nsamples = 5\nvalue = 24.0", fillcolor="#fffdfc"] ;
228 -> 230 ;
231 [label="T5 <= 17.108\nsquared_error = 22.222\nsamples = 3\nvalue = 26.667", fillcolor="#fffdfc"] ;
230 -> 231 ;
232 [label="squared_error = 0.0\nsamples = 2\nvalue = 30.0", fillcolor="#fffdfb"] ;
231 -> 232 ;
233 [label="squared_error = 0.0\nsamples = 1\nvalue = 20.0", fillcolor="#fffefd"] ;
231 -> 233 ;
234 [label="squared_error = 0.0\nsamples = 2\nvalue = 20.0", fillcolor="#fffefd"] ;
230 -> 234 ;
235 [label="Tdewpoint <= -5.1\nsquared_error = 56.0\nsamples = 15\nvalue = 58.0", fillcolor="#fef9f6"] ;
173 -> 235 ;
236 [label="T3 <= 20.583\nsquared_error = 30.769\nsamples = 13\nvalue = 60.0", fillcolor="#fef9f6"] ;
235 -> 236 ;
237 [label="T5 <= 18.279\nsquared_error = 26.446\nsamples = 11\nvalue = 59.091", fillcolor="#fef9f6"] ;
236 -> 237 ;
238 [label="T3 <= 20.463\nsquared_error = 25.0\nsamples = 4\nvalue = 55.0", fillcolor="#fefaf7"] ;
237 -> 238 ;
239 [label="squared_error = 0.0\nsamples = 1\nvalue = 60.0", fillcolor="#fef9f6"] ;
238 -> 239 ;
240 [label="Tdewpoint <= -5.975\nsquared_error = 22.222\nsamples = 3\nvalue = 53.333", fillcolor="#fefaf7"] ;
238 -> 240 ;
241 [label="squared_error = 0.0\nsamples = 1\nvalue = 60.0", fillcolor="#fef9f6"] ;
240 -> 241 ;
242 [label="squared_error = 0.0\nsamples = 2\nvalue = 50.0", fillcolor="#fefaf8"] ;
240 -> 242 ;
243 [label="Tdewpoint <= -5.458\nsquared_error = 12.245\nsamples = 7\nvalue = 61.429", fillcolor="#fef9f5"] ;
237 -> 243 ;
244 [label="Total_Temperature <= 16.389\nsquared_error = 25.0\nsamples = 2\nvalue = 65.0", fillcolor="#fef9f5"] ;
243 -> 244 ;
245 [label="squared_error = 0.0\nsamples = 1\nvalue = 60.0", fillcolor="#fef9f6"] ;
244 -> 245 ;
246 [label="squared_error = 0.0\nsamples = 1\nvalue = 70.0", fillcolor="#fef8f4"] ;
244 -> 246 ;
247 [label="squared_error = 0.0\nsamples = 5\nvalue = 60.0", fillcolor="#fef9f6"] ;
243 -> 247 ;
248 [label="T4 <= 18.81\nsquared_error = 25.0\nsamples = 2\nvalue = 65.0", fillcolor="#fef9f5"] ;
236 -> 248 ;
249 [label="squared_error = 0.0\nsamples = 1\nvalue = 70.0", fillcolor="#fef8f4"] ;
248 -> 249 ;
250 [label="squared_error = 0.0\nsamples = 1\nvalue = 60.0", fillcolor="#fef9f6"] ;
248 -> 250 ;
251 [label="T4 <= 19.245\nsquared_error = 25.0\nsamples = 2\nvalue = 45.0", fillcolor="#fefbf9"] ;
235 -> 251 ;
252 [label="squared_error = 0.0\nsamples = 1\nvalue = 40.0", fillcolor="#fefbf9"] ;
251 -> 252 ;
253 [label="squared_error = 0.0\nsamples = 1\nvalue = 50.0", fillcolor="#fefaf8"] ;
251 -> 253 ;
254 [label="Tdewpoint <= -4.417\nsquared_error = 5744.297\nsamples = 1002\nvalue = 70.12", fillcolor="#fef8f4"] ;
172 -> 254 ;
255 [label="T2 <= 17.683\nsquared_error = 33355.102\nsamples = 21\nvalue = 171.429", fillcolor="#fbece1"] ;
254 -> 255 ;
256 [label="Tdewpoint <= -4.442\nsquared_error = 4002.083\nsamples = 12\nvalue = 77.5", fillcolor="#fdf7f3"] ;
255 -> 256 ;
257 [label="Tdewpoint <= -4.483\nsquared_error = 1062.81\nsamples = 11\nvalue = 60.909", fillcolor="#fef9f6"] ;
256 -> 257 ;
258 [label="T5 <= 16.213\nsquared_error = 133.333\nsamples = 9\nvalue = 46.667", fillcolor="#fefbf8"] ;
257 -> 258 ;
259 [label="Tdewpoint <= -4.6\nsquared_error = 100.0\nsamples = 2\nvalue = 30.0", fillcolor="#fffdfb"] ;
258 -> 259 ;
260 [label="squared_error = 0.0\nsamples = 1\nvalue = 40.0", fillcolor="#fefbf9"] ;
259 -> 260 ;
261 [label="squared_error = 0.0\nsamples = 1\nvalue = 20.0", fillcolor="#fffefd"] ;
259 -> 261 ;
262 [label="T3 <= 20.39\nsquared_error = 40.816\nsamples = 7\nvalue = 51.429", fillcolor="#fefaf7"] ;
258 -> 262 ;
263 [label="Tdewpoint <= -4.55\nsquared_error = 22.222\nsamples = 6\nvalue = 53.333", fillcolor="#fefaf7"] ;
262 -> 263 ;
264 [label="squared_error = 0.0\nsamples = 3\nvalue = 50.0", fillcolor="#fefaf8"] ;
263 -> 264 ;
265 [label="T6 <= -0.909\nsquared_error = 22.222\nsamples = 3\nvalue = 56.667", fillcolor="#fefaf6"] ;
263 -> 265 ;
266 [label="squared_error = 0.0\nsamples = 2\nvalue = 60.0", fillcolor="#fef9f6"] ;
265 -> 266 ;
267 [label="squared_error = 0.0\nsamples = 1\nvalue = 50.0", fillcolor="#fefaf8"] ;
265 -> 267 ;
268 [label="squared_error = 0.0\nsamples = 1\nvalue = 40.0", fillcolor="#fefbf9"] ;
262 -> 268 ;
269 [label="Total_Temperature <= 15.658\nsquared_error = 225.0\nsamples = 2\nvalue = 125.0", fillcolor="#fcf1ea"] ;
257 -> 269 ;
270 [label="squared_error = 0.0\nsamples = 1\nvalue = 110.0", fillcolor="#fdf3ec"] ;
269 -> 270 ;
271 [label="squared_error = 0.0\nsamples = 1\nvalue = 140.0", fillcolor="#fcf0e7"] ;
269 -> 271 ;
272 [label="squared_error = 0.0\nsamples = 1\nvalue = 260.0", fillcolor="#f9e2d1"] ;
256 -> 272 ;
273 [label="T_out <= -2.183\nsquared_error = 45044.444\nsamples = 9\nvalue = 296.667", fillcolor="#f8ddca"] ;
255 -> 273 ;
274 [label="T_out <= -2.375\nsquared_error = 15696.0\nsamples = 5\nvalue = 462.0", fillcolor="#f4caab"] ;
273 -> 274 ;
275 [label="Total_Temperature <= 15.537\nsquared_error = 5600.0\nsamples = 3\nvalue = 380.0", fillcolor="#f6d3bb"] ;
274 -> 275 ;
276 [label="squared_error = 0.0\nsamples = 1\nvalue = 480.0", fillcolor="#f4c8a8"] ;
275 -> 276 ;
277 [label="T1 <= 19.133\nsquared_error = 900.0\nsamples = 2\nvalue = 330.0", fillcolor="#f7d9c4"] ;
275 -> 277 ;
278 [label="squared_error = 0.0\nsamples = 1\nvalue = 300.0", fillcolor="#f8ddc9"] ;
277 -> 278 ;
279 [label="squared_error = 0.0\nsamples = 1\nvalue = 360.0", fillcolor="#f6d6be"] ;
277 -> 279 ;
280 [label="T6 <= -2.223\nsquared_error = 5625.0\nsamples = 2\nvalue = 585.0", fillcolor="#f1bb95"] ;
274 -> 280 ;
281 [label="squared_error = 0.0\nsamples = 1\nvalue = 510.0", fillcolor="#f3c4a2"] ;
280 -> 281 ;
282 [label="squared_error = 0.0\nsamples = 1\nvalue = 660.0", fillcolor="#efb287"] ;
280 -> 282 ;
283 [label="T6 <= -3.471\nsquared_error = 4850.0\nsamples = 4\nvalue = 90.0", fillcolor="#fdf6f0"] ;
273 -> 283 ;
284 [label="squared_error = 0.0\nsamples = 1\nvalue = 210.0", fillcolor="#fae7da"] ;
283 -> 284 ;
285 [label="T5 <= 16.348\nsquared_error = 66.667\nsamples = 3\nvalue = 50.0", fillcolor="#fefaf8"] ;
283 -> 285 ;
286 [label="squared_error = 0.0\nsamples = 1\nvalue = 60.0", fillcolor="#fef9f6"] ;
285 -> 286 ;
287 [label="T2 <= 17.908\nsquared_error = 25.0\nsamples = 2\nvalue = 45.0", fillcolor="#fefbf9"] ;
285 -> 287 ;
288 [label="squared_error = 0.0\nsamples = 1\nvalue = 50.0", fillcolor="#fefaf8"] ;
287 -> 288 ;
289 [label="squared_error = 0.0\nsamples = 1\nvalue = 40.0", fillcolor="#fefbf9"] ;
287 -> 289 ;
290 [label="T6 <= -2.98\nsquared_error = 4928.829\nsamples = 981\nvalue = 67.951", fillcolor="#fef8f4"] ;
254 -> 290 ;
291 [label="Tdewpoint <= -3.283\nsquared_error = 20905.527\nsamples = 44\nvalue = 121.136", fillcolor="#fcf2ea"] ;
290 -> 291 ;
292 [label="T6 <= -3.227\nsquared_error = 9791.69\nsamples = 38\nvalue = 83.684", fillcolor="#fdf6f1"] ;
291 -> 292 ;
293 [label="T9 <= 17.807\nsquared_error = 8087.655\nsamples = 37\nvalue = 76.486", fillcolor="#fdf7f3"] ;
292 -> 293 ;
294 [label="T5 <= 17.53\nsquared_error = 14063.712\nsamples = 19\nvalue = 103.158", fillcolor="#fdf4ee"] ;
293 -> 294 ;
295 [label="T2 <= 17.083\nsquared_error = 4655.556\nsamples = 18\nvalue = 80.0", fillcolor="#fdf7f2"] ;
294 -> 295 ;
296 [label="T1 <= 18.408\nsquared_error = 56.198\nsamples = 11\nvalue = 57.273", fillcolor="#fef9f6"] ;
295 -> 296 ;
297 [label="T6 <= -3.851\nsquared_error = 22.222\nsamples = 9\nvalue = 60.0", fillcolor="#fef9f6"] ;
296 -> 297 ;
298 [label="squared_error = 0.0\nsamples = 1\nvalue = 50.0", fillcolor="#fefaf8"] ;
297 -> 298 ;
299 [label="Tdewpoint <= -4.383\nsquared_error = 10.938\nsamples = 8\nvalue = 61.25", fillcolor="#fef9f6"] ;
297 -> 299 ;
300 [label="squared_error = 0.0\nsamples = 1\nvalue = 70.0", fillcolor="#fef8f4"] ;
299 -> 300 ;
301 [label="squared_error = 0.0\nsamples = 7\nvalue = 60.0", fillcolor="#fef9f6"] ;
299 -> 301 ;
302 [label="T_out <= -2.767\nsquared_error = 25.0\nsamples = 2\nvalue = 45.0", fillcolor="#fefbf9"] ;
296 -> 302 ;
303 [label="squared_error = 0.0\nsamples = 1\nvalue = 50.0", fillcolor="#fefaf8"] ;
302 -> 303 ;
304 [label="squared_error = 0.0\nsamples = 1\nvalue = 40.0", fillcolor="#fefbf9"] ;
302 -> 304 ;
305 [label="Total_Temperature <= 15.25\nsquared_error = 9795.918\nsamples = 7\nvalue = 115.714", fillcolor="#fcf3eb"] ;
295 -> 305 ;
306 [label="squared_error = 0.0\nsamples = 1\nvalue = 340.0", fillcolor="#f7d8c2"] ;
305 -> 306 ;
307 [label="T_out <= -2.867\nsquared_error = 1647.222\nsamples = 6\nvalue = 78.333", fillcolor="#fdf7f2"] ;
305 -> 307 ;
308 [label="T6 <= -3.447\nsquared_error = 268.75\nsamples = 4\nvalue = 52.5", fillcolor="#fefaf7"] ;
307 -> 308 ;
309 [label="T6 <= -3.544\nsquared_error = 22.222\nsamples = 3\nvalue = 43.333", fillcolor="#fefbf9"] ;
308 -> 309 ;
310 [label="squared_error = 0.0\nsamples = 1\nvalue = 50.0", fillcolor="#fefaf8"] ;
309 -> 310 ;
311 [label="squared_error = 0.0\nsamples = 2\nvalue = 40.0", fillcolor="#fefbf9"] ;
309 -> 311 ;
312 [label="squared_error = 0.0\nsamples = 1\nvalue = 80.0", fillcolor="#fdf7f2"] ;
308 -> 312 ;
313 [label="T2 <= 17.35\nsquared_error = 400.0\nsamples = 2\nvalue = 130.0", fillcolor="#fcf1e9"] ;
307 -> 313 ;
314 [label="squared_error = 0.0\nsamples = 1\nvalue = 150.0", fillcolor="#fcefe5"] ;
313 -> 314 ;
315 [label="squared_error = 0.0\nsamples = 1\nvalue = 110.0", fillcolor="#fdf3ec"] ;
313 -> 315 ;
316 [label="squared_error = 0.0\nsamples = 1\nvalue = 520.0", fillcolor="#f3c3a1"] ;
294 -> 316 ;
317 [label="T6 <= -3.538\nsquared_error = 236.111\nsamples = 18\nvalue = 48.333", fillcolor="#fefaf8"] ;
293 -> 317 ;
318 [label="T2 <= 17.427\nsquared_error = 191.837\nsamples = 14\nvalue = 52.857", fillcolor="#fefaf7"] ;
317 -> 318 ;
319 [label="squared_error = 0.0\nsamples = 1\nvalue = 80.0", fillcolor="#fdf7f2"] ;
318 -> 319 ;
320 [label="T3 <= 20.164\nsquared_error = 145.562\nsamples = 13\nvalue = 50.769", fillcolor="#fefaf7"] ;
318 -> 320 ;
321 [label="squared_error = 0.0\nsamples = 1\nvalue = 80.0", fillcolor="#fdf7f2"] ;
320 -> 321 ;
322 [label="T6 <= -3.847\nsquared_error = 80.556\nsamples = 12\nvalue = 48.333", fillcolor="#fefaf8"] ;
320 -> 322 ;
323 [label="T3 <= 20.775\nsquared_error = 24.49\nsamples = 7\nvalue = 54.286", fillcolor="#fefaf7"] ;
322 -> 323 ;
324 [label="T6 <= -4.23\nsquared_error = 18.75\nsamples = 4\nvalue = 57.5", fillcolor="#fef9f6"] ;
323 -> 324 ;
325 [label="squared_error = 0.0\nsamples = 1\nvalue = 50.0", fillcolor="#fefaf8"] ;
324 -> 325 ;
326 [label="squared_error = 0.0\nsamples = 3\nvalue = 60.0", fillcolor="#fef9f6"] ;
324 -> 326 ;
327 [label="squared_error = 0.0\nsamples = 3\nvalue = 50.0", fillcolor="#fefaf8"] ;
323 -> 327 ;
328 [label="Tdewpoint <= -3.65\nsquared_error = 40.0\nsamples = 5\nvalue = 40.0", fillcolor="#fefbf9"] ;
322 -> 328 ;
329 [label="T3 <= 20.45\nsquared_error = 18.75\nsamples = 4\nvalue = 37.5", fillcolor="#fefcfa"] ;
328 -> 329 ;
330 [label="squared_error = 0.0\nsamples = 1\nvalue = 30.0", fillcolor="#fffdfb"] ;
329 -> 330 ;
331 [label="squared_error = 0.0\nsamples = 3\nvalue = 40.0", fillcolor="#fefbf9"] ;
329 -> 331 ;
332 [label="squared_error = 0.0\nsamples = 1\nvalue = 50.0", fillcolor="#fefaf8"] ;
328 -> 332 ;
333 [label="T3 <= 20.373\nsquared_error = 68.75\nsamples = 4\nvalue = 32.5", fillcolor="#fefcfb"] ;
317 -> 333 ;
334 [label="squared_error = 0.0\nsamples = 1\nvalue = 20.0", fillcolor="#fffefd"] ;
333 -> 334 ;
335 [label="T1 <= 20.245\nsquared_error = 22.222\nsamples = 3\nvalue = 36.667", fillcolor="#fefcfa"] ;
333 -> 335 ;
336 [label="squared_error = 0.0\nsamples = 2\nvalue = 40.0", fillcolor="#fefbf9"] ;
335 -> 336 ;
337 [label="squared_error = 0.0\nsamples = 1\nvalue = 30.0", fillcolor="#fffdfb"] ;
335 -> 337 ;
338 [label="squared_error = 0.0\nsamples = 1\nvalue = 350.0", fillcolor="#f7d7c0"] ;
292 -> 338 ;
339 [label="T3 <= 20.36\nsquared_error = 26147.222\nsamples = 6\nvalue = 358.333", fillcolor="#f7d6bf"] ;
291 -> 339 ;
340 [label="squared_error = 0.0\nsamples = 1\nvalue = 690.0", fillcolor="#eeaf81"] ;
339 -> 340 ;
341 [label="T4 <= 18.908\nsquared_error = 4976.0\nsamples = 5\nvalue = 292.0", fillcolor="#f8decb"] ;
339 -> 341 ;
342 [label="T2 <= 17.512\nsquared_error = 1100.0\nsamples = 4\nvalue = 260.0", fillcolor="#f9e2d1"] ;
341 -> 342 ;
343 [label="T_out <= -1.383\nsquared_error = 400.0\nsamples = 2\nvalue = 290.0", fillcolor="#f8decb"] ;
342 -> 343 ;
344 [label="squared_error = 0.0\nsamples = 1\nvalue = 310.0", fillcolor="#f8dcc7"] ;
343 -> 344 ;
345 [label="squared_error = 0.0\nsamples = 1\nvalue = 270.0", fillcolor="#f9e0cf"] ;
343 -> 345 ;
346 [label="squared_error = 0.0\nsamples = 2\nvalue = 230.0", fillcolor="#fae5d6"] ;
342 -> 346 ;
347 [label="squared_error = 0.0\nsamples = 1\nvalue = 420.0", fillcolor="#f5cfb3"] ;
341 -> 347 ;
348 [label="T4 <= 17.982\nsquared_error = 4039.522\nsamples = 937\nvalue = 65.454", fillcolor="#fef8f5"] ;
290 -> 348 ;
349 [label="Tdewpoint <= -2.408\nsquared_error = 1986.762\nsamples = 261\nvalue = 53.793", fillcolor="#fefaf7"] ;
348 -> 349 ;
350 [label="T_out <= 3.8\nsquared_error = 4311.189\nsamples = 103\nvalue = 70.68", fillcolor="#fef8f4"] ;
349 -> 350 ;
351 [label="T6 <= 1.567\nsquared_error = 3877.249\nsamples = 102\nvalue = 68.529", fillcolor="#fef8f4"] ;
350 -> 351 ;
352 [label="T2 <= 16.807\nsquared_error = 2304.431\nsamples = 89\nvalue = 62.135", fillcolor="#fef9f5"] ;
351 -> 352 ;
353 [label="T3 <= 18.26\nsquared_error = 5808.284\nsamples = 13\nvalue = 106.154", fillcolor="#fdf4ed"] ;
352 -> 353 ;
354 [label="T1 <= 17.962\nsquared_error = 11525.0\nsamples = 4\nvalue = 175.0", fillcolor="#fbece0"] ;
353 -> 354 ;
355 [label="Total_Temperature <= 15.483\nsquared_error = 25.0\nsamples = 2\nvalue = 75.0", fillcolor="#fdf7f3"] ;
354 -> 355 ;
356 [label="squared_error = 0.0\nsamples = 1\nvalue = 70.0", fillcolor="#fef8f4"] ;
355 -> 356 ;
357 [label="squared_error = 0.0\nsamples = 1\nvalue = 80.0", fillcolor="#fdf7f2"] ;
355 -> 357 ;
358 [label="T6 <= 0.292\nsquared_error = 3025.0\nsamples = 2\nvalue = 275.0", fillcolor="#f9e0ce"] ;
354 -> 358 ;
359 [label="squared_error = 0.0\nsamples = 1\nvalue = 330.0", fillcolor="#f7d9c4"] ;
358 -> 359 ;
360 [label="squared_error = 0.0\nsamples = 1\nvalue = 220.0", fillcolor="#fae6d8"] ;
358 -> 360 ;
361 [label="T_out <= -1.367\nsquared_error = 224.691\nsamples = 9\nvalue = 75.556", fillcolor="#fdf7f3"] ;
353 -> 361 ;
362 [label="T4 <= 16.84\nsquared_error = 266.667\nsamples = 3\nvalue = 90.0", fillcolor="#fdf6f0"] ;
361 -> 362 ;
363 [label="squared_error = 0.0\nsamples = 1\nvalue = 110.0", fillcolor="#fdf3ec"] ;
362 -> 363 ;
364 [label="Total_Temperature <= 15.305\nsquared_error = 100.0\nsamples = 2\nvalue = 80.0", fillcolor="#fdf7f2"] ;
362 -> 364 ;
365 [label="squared_error = 0.0\nsamples = 1\nvalue = 70.0", fillcolor="#fef8f4"] ;
364 -> 365 ;
366 [label="squared_error = 0.0\nsamples = 1\nvalue = 90.0", fillcolor="#fdf6f0"] ;
364 -> 366 ;
367 [label="Tdewpoint <= -3.133\nsquared_error = 47.222\nsamples = 6\nvalue = 68.333", fillcolor="#fef8f4"] ;
361 -> 367 ;
368 [label="T_out <= -1.1\nsquared_error = 18.75\nsamples = 4\nvalue = 72.5", fillcolor="#fdf8f3"] ;
367 -> 368 ;
369 [label="squared_error = 0.0\nsamples = 2\nvalue = 70.0", fillcolor="#fef8f4"] ;
368 -> 369 ;
370 [label="T6 <= 0.321\nsquared_error = 25.0\nsamples = 2\nvalue = 75.0", fillcolor="#fdf7f3"] ;
368 -> 370 ;
371 [label="squared_error = 0.0\nsamples = 1\nvalue = 80.0", fillcolor="#fdf7f2"] ;
370 -> 371 ;
372 [label="squared_error = 0.0\nsamples = 1\nvalue = 70.0", fillcolor="#fef8f4"] ;
370 -> 372 ;
373 [label="squared_error = 0.0\nsamples = 2\nvalue = 60.0", fillcolor="#fef9f6"] ;
367 -> 373 ;
374 [label="T2 <= 17.377\nsquared_error = 1316.949\nsamples = 76\nvalue = 54.605", fillcolor="#fefaf7"] ;
352 -> 374 ;
375 [label="T2 <= 17.361\nsquared_error = 2117.253\nsamples = 43\nvalue = 61.163", fillcolor="#fef9f6"] ;
374 -> 375 ;
376 [label="T5 <= 16.408\nsquared_error = 272.392\nsamples = 42\nvalue = 54.524", fillcolor="#fefaf7"] ;
375 -> 376 ;
377 [label="T_out <= -2.717\nsquared_error = 137.925\nsamples = 33\nvalue = 48.788", fillcolor="#fefaf8"] ;
376 -> 377 ;
378 [label="T4 <= 16.945\nsquared_error = 25.0\nsamples = 2\nvalue = 25.0", fillcolor="#fffdfc"] ;
377 -> 378 ;
379 [label="squared_error = 0.0\nsamples = 1\nvalue = 20.0", fillcolor="#fffefd"] ;
378 -> 379 ;
380 [label="squared_error = 0.0\nsamples = 1\nvalue = 30.0", fillcolor="#fffdfb"] ;
378 -> 380 ;
381 [label="T6 <= 0.6\nsquared_error = 106.348\nsamples = 31\nvalue = 50.323", fillcolor="#fefaf8"] ;
377 -> 381 ;
382 [label="Tdewpoint <= -3.283\nsquared_error = 71.056\nsamples = 27\nvalue = 52.593", fillcolor="#fefaf7"] ;
381 -> 382 ;
383 [label="T4 <= 17.167\nsquared_error = 63.905\nsamples = 13\nvalue = 47.692", fillcolor="#fefbf8"] ;
382 -> 383 ;
384 [label="Total_Temperature <= 14.966\nsquared_error = 44.444\nsamples = 9\nvalue = 50.0", fillcolor="#fefaf8"] ;
383 -> 384 ;
385 [label="squared_error = 0.0\nsamples = 1\nvalue = 40.0", fillcolor="#fefbf9"] ;
384 -> 385 ;
386 [label="T6 <= -0.467\nsquared_error = 35.938\nsamples = 8\nvalue = 51.25", fillcolor="#fefaf7"] ;
384 -> 386 ;
387 [label="T6 <= -2.497\nsquared_error = 28.571\nsamples = 7\nvalue = 50.0", fillcolor="#fefaf8"] ;
386 -> 387 ;
388 [label="T9 <= 15.845\nsquared_error = 25.0\nsamples = 2\nvalue = 55.0", fillcolor="#fefaf7"] ;
387 -> 388 ;
389 [label="squared_error = 0.0\nsamples = 1\nvalue = 50.0", fillcolor="#fefaf8"] ;
388 -> 389 ;
390 [label="squared_error = 0.0\nsamples = 1\nvalue = 60.0", fillcolor="#fef9f6"] ;
388 -> 390 ;
391 [label="T_out <= -1.917\nsquared_error = 16.0\nsamples = 5\nvalue = 48.0", fillcolor="#fefbf8"] ;
387 -> 391 ;
392 [label="Total_Temperature <= 15.062\nsquared_error = 25.0\nsamples = 2\nvalue = 45.0", fillcolor="#fefbf9"] ;
391 -> 392 ;
393 [label="squared_error = 0.0\nsamples = 1\nvalue = 50.0", fillcolor="#fefaf8"] ;
392 -> 393 ;
394 [label="squared_error = 0.0\nsamples = 1\nvalue = 40.0", fillcolor="#fefbf9"] ;
392 -> 394 ;
395 [label="squared_error = 0.0\nsamples = 3\nvalue = 50.0", fillcolor="#fefaf8"] ;
391 -> 395 ;
396 [label="squared_error = 0.0\nsamples = 1\nvalue = 60.0", fillcolor="#fef9f6"] ;
386 -> 396 ;
397 [label="T1 <= 18.275\nsquared_error = 68.75\nsamples = 4\nvalue = 42.5", fillcolor="#fefbf9"] ;
383 -> 397 ;
398 [label="T2 <= 17.23\nsquared_error = 22.222\nsamples = 3\nvalue = 46.667", fillcolor="#fefbf8"] ;
397 -> 398 ;
399 [label="squared_error = 0.0\nsamples = 1\nvalue = 40.0", fillcolor="#fefbf9"] ;
398 -> 399 ;
400 [label="squared_error = 0.0\nsamples = 2\nvalue = 50.0", fillcolor="#fefaf8"] ;
398 -> 400 ;
401 [label="squared_error = 0.0\nsamples = 1\nvalue = 30.0", fillcolor="#fffdfb"] ;
397 -> 401 ;
402 [label="Tdewpoint <= -2.95\nsquared_error = 34.694\nsamples = 14\nvalue = 57.143", fillcolor="#fef9f6"] ;
382 -> 402 ;
403 [label="T1 <= 18.245\nsquared_error = 24.691\nsamples = 9\nvalue = 54.444", fillcolor="#fefaf7"] ;
402 -> 403 ;
404 [label="squared_error = 0.0\nsamples = 4\nvalue = 50.0", fillcolor="#fefaf8"] ;
403 -> 404 ;
405 [label="Total_Temperature <= 15.221\nsquared_error = 16.0\nsamples = 5\nvalue = 58.0", fillcolor="#fef9f6"] ;
403 -> 405 ;
406 [label="squared_error = 0.0\nsamples = 3\nvalue = 60.0", fillcolor="#fef9f6"] ;
405 -> 406 ;
407 [label="T1 <= 18.34\nsquared_error = 25.0\nsamples = 2\nvalue = 55.0", fillcolor="#fefaf7"] ;
405 -> 407 ;
408 [label="squared_error = 0.0\nsamples = 1\nvalue = 60.0", fillcolor="#fef9f6"] ;
407 -> 408 ;
409 [label="squared_error = 0.0\nsamples = 1\nvalue = 50.0", fillcolor="#fefaf8"] ;
407 -> 409 ;
410 [label="T4 <= 17.26\nsquared_error = 16.0\nsamples = 5\nvalue = 62.0", fillcolor="#fef9f5"] ;
402 -> 410 ;
411 [label="squared_error = 0.0\nsamples = 1\nvalue = 70.0", fillcolor="#fef8f4"] ;
410 -> 411 ;
412 [label="squared_error = 0.0\nsamples = 4\nvalue = 60.0", fillcolor="#fef9f6"] ;
410 -> 412 ;
413 [label="T_out <= 2.192\nsquared_error = 75.0\nsamples = 4\nvalue = 35.0", fillcolor="#fefcfa"] ;
381 -> 413 ;
414 [label="squared_error = 0.0\nsamples = 3\nvalue = 30.0", fillcolor="#fffdfb"] ;
413 -> 414 ;
415 [label="squared_error = 0.0\nsamples = 1\nvalue = 50.0", fillcolor="#fefaf8"] ;
413 -> 415 ;
416 [label="T_out <= -2.117\nsquared_error = 202.469\nsamples = 9\nvalue = 75.556", fillcolor="#fdf7f3"] ;
376 -> 416 ;
417 [label="Tdewpoint <= -3.875\nsquared_error = 155.556\nsamples = 3\nvalue = 63.333", fillcolor="#fef9f5"] ;
416 -> 417 ;
418 [label="squared_error = 0.0\nsamples = 1\nvalue = 80.0", fillcolor="#fdf7f2"] ;
417 -> 418 ;
419 [label="Total_Temperature <= 15.064\nsquared_error = 25.0\nsamples = 2\nvalue = 55.0", fillcolor="#fefaf7"] ;
417 -> 419 ;
420 [label="squared_error = 0.0\nsamples = 1\nvalue = 60.0", fillcolor="#fef9f6"] ;
419 -> 420 ;
421 [label="squared_error = 0.0\nsamples = 1\nvalue = 50.0", fillcolor="#fefaf8"] ;
419 -> 421 ;
422 [label="T_out <= -1.825\nsquared_error = 113.889\nsamples = 6\nvalue = 81.667", fillcolor="#fdf7f2"] ;
416 -> 422 ;
423 [label="T3 <= 18.445\nsquared_error = 24.0\nsamples = 5\nvalue = 86.0", fillcolor="#fdf6f1"] ;
422 -> 423 ;
424 [label="squared_error = 0.0\nsamples = 2\nvalue = 80.0", fillcolor="#fdf7f2"] ;
423 -> 424 ;
425 [label="squared_error = 0.0\nsamples = 3\nvalue = 90.0", fillcolor="#fdf6f0"] ;
423 -> 425 ;
426 [label="squared_error = 0.0\nsamples = 1\nvalue = 60.0", fillcolor="#fef9f6"] ;
422 -> 426 ;
427 [label="squared_error = 0.0\nsamples = 1\nvalue = 340.0", fillcolor="#f7d8c2"] ;
375 -> 427 ;
428 [label="T6 <= -1.958\nsquared_error = 145.087\nsamples = 33\nvalue = 46.061", fillcolor="#fefbf8"] ;
374 -> 428 ;
429 [label="T3 <= 19.05\nsquared_error = 18.75\nsamples = 4\nvalue = 27.5", fillcolor="#fffdfc"] ;
428 -> 429 ;
430 [label="squared_error = 0.0\nsamples = 2\nvalue = 30.0", fillcolor="#fffdfb"] ;
429 -> 430 ;
431 [label="T6 <= -2.093\nsquared_error = 25.0\nsamples = 2\nvalue = 25.0", fillcolor="#fffdfc"] ;
429 -> 431 ;
432 [label="squared_error = 0.0\nsamples = 1\nvalue = 20.0", fillcolor="#fffefd"] ;
431 -> 432 ;
433 [label="squared_error = 0.0\nsamples = 1\nvalue = 30.0", fillcolor="#fffdfb"] ;
431 -> 433 ;
434 [label="T2 <= 17.65\nsquared_error = 108.442\nsamples = 29\nvalue = 48.621", fillcolor="#fefaf8"] ;
428 -> 434 ;
435 [label="T2 <= 17.517\nsquared_error = 64.889\nsamples = 15\nvalue = 55.333", fillcolor="#fefaf7"] ;
434 -> 435 ;
436 [label="T5 <= 16.436\nsquared_error = 66.667\nsamples = 6\nvalue = 50.0", fillcolor="#fefaf8"] ;
435 -> 436 ;
437 [label="T4 <= 17.26\nsquared_error = 25.0\nsamples = 4\nvalue = 55.0", fillcolor="#fefaf7"] ;
436 -> 437 ;
438 [label="squared_error = 0.0\nsamples = 2\nvalue = 60.0", fillcolor="#fef9f6"] ;
437 -> 438 ;
439 [label="squared_error = 0.0\nsamples = 2\nvalue = 50.0", fillcolor="#fefaf8"] ;
437 -> 439 ;
440 [label="squared_error = 0.0\nsamples = 2\nvalue = 40.0", fillcolor="#fefbf9"] ;
436 -> 440 ;
441 [label="T6 <= -1.792\nsquared_error = 32.099\nsamples = 9\nvalue = 58.889", fillcolor="#fef9f6"] ;
435 -> 441 ;
442 [label="squared_error = 0.0\nsamples = 1\nvalue = 70.0", fillcolor="#fef8f4"] ;
441 -> 442 ;
443 [label="Total_Temperature <= 16.689\nsquared_error = 18.75\nsamples = 8\nvalue = 57.5", fillcolor="#fef9f6"] ;
441 -> 443 ;
444 [label="T2 <= 17.617\nsquared_error = 12.245\nsamples = 7\nvalue = 58.571", fillcolor="#fef9f6"] ;
443 -> 444 ;
445 [label="squared_error = 0.0\nsamples = 6\nvalue = 60.0", fillcolor="#fef9f6"] ;
444 -> 445 ;
446 [label="squared_error = 0.0\nsamples = 1\nvalue = 50.0", fillcolor="#fefaf8"] ;
444 -> 446 ;
447 [label="squared_error = 0.0\nsamples = 1\nvalue = 50.0", fillcolor="#fefaf8"] ;
443 -> 447 ;
448 [label="T3 <= 20.008\nsquared_error = 55.102\nsamples = 14\nvalue = 41.429", fillcolor="#fefbf9"] ;
434 -> 448 ;
449 [label="T6 <= 0.217\nsquared_error = 41.322\nsamples = 11\nvalue = 43.636", fillcolor="#fefbf9"] ;
448 -> 449 ;
450 [label="Tdewpoint <= -3.325\nsquared_error = 25.0\nsamples = 10\nvalue = 45.0", fillcolor="#fefbf9"] ;
449 -> 450 ;
451 [label="squared_error = 0.0\nsamples = 2\nvalue = 40.0", fillcolor="#fefbf9"] ;
450 -> 451 ;
452 [label="Tdewpoint <= -2.7\nsquared_error = 23.438\nsamples = 8\nvalue = 46.25", fillcolor="#fefbf8"] ;
450 -> 452 ;
453 [label="T9 <= 15.982\nsquared_error = 20.408\nsamples = 7\nvalue = 47.143", fillcolor="#fefbf8"] ;
452 -> 453 ;
454 [label="squared_error = 0.0\nsamples = 4\nvalue = 50.0", fillcolor="#fefaf8"] ;
453 -> 454 ;
455 [label="T9 <= 16.945\nsquared_error = 22.222\nsamples = 3\nvalue = 43.333", fillcolor="#fefbf9"] ;
453 -> 455 ;
456 [label="squared_error = 0.0\nsamples = 2\nvalue = 40.0", fillcolor="#fefbf9"] ;
455 -> 456 ;
457 [label="squared_error = 0.0\nsamples = 1\nvalue = 50.0", fillcolor="#fefaf8"] ;
455 -> 457 ;
458 [label="squared_error = 0.0\nsamples = 1\nvalue = 40.0", fillcolor="#fefbf9"] ;
452 -> 458 ;
459 [label="squared_error = 0.0\nsamples = 1\nvalue = 30.0", fillcolor="#fffdfb"] ;
449 -> 459 ;
460 [label="T6 <= -0.85\nsquared_error = 22.222\nsamples = 3\nvalue = 33.333", fillcolor="#fefcfb"] ;
448 -> 460 ;
461 [label="squared_error = 0.0\nsamples = 1\nvalue = 40.0", fillcolor="#fefbf9"] ;
460 -> 461 ;
462 [label="squared_error = 0.0\nsamples = 2\nvalue = 30.0", fillcolor="#fffdfb"] ;
460 -> 462 ;
463 [label="Total_Temperature <= 15.415\nsquared_error = 12448.521\nsamples = 13\nvalue = 112.308", fillcolor="#fdf3ec"] ;
351 -> 463 ;
464 [label="T6 <= 1.697\nsquared_error = 900.0\nsamples = 2\nvalue = 370.0", fillcolor="#f6d5bc"] ;
463 -> 464 ;
465 [label="squared_error = 0.0\nsamples = 1\nvalue = 340.0", fillcolor="#f7d8c2"] ;
464 -> 465 ;
466 [label="squared_error = 0.0\nsamples = 1\nvalue = 400.0", fillcolor="#f6d1b7"] ;
464 -> 466 ;
467 [label="Total_Temperature <= 15.51\nsquared_error = 279.339\nsamples = 11\nvalue = 65.455", fillcolor="#fef8f5"] ;
463 -> 467 ;
468 [label="T3 <= 18.125\nsquared_error = 24.0\nsamples = 5\nvalue = 76.0", fillcolor="#fdf7f3"] ;
467 -> 468 ;
469 [label="squared_error = 0.0\nsamples = 3\nvalue = 80.0", fillcolor="#fdf7f2"] ;
468 -> 469 ;
470 [label="squared_error = 0.0\nsamples = 2\nvalue = 70.0", fillcolor="#fef8f4"] ;
468 -> 470 ;
471 [label="T_out <= 0.325\nsquared_error = 322.222\nsamples = 6\nvalue = 56.667", fillcolor="#fefaf6"] ;
467 -> 471 ;
472 [label="squared_error = 0.0\nsamples = 2\nvalue = 80.0", fillcolor="#fdf7f2"] ;
471 -> 472 ;
473 [label="Total_Temperature <= 15.542\nsquared_error = 75.0\nsamples = 4\nvalue = 45.0", fillcolor="#fefbf9"] ;
471 -> 473 ;
474 [label="T_out <= 0.475\nsquared_error = 100.0\nsamples = 2\nvalue = 40.0", fillcolor="#fefbf9"] ;
473 -> 474 ;
475 [label="squared_error = 0.0\nsamples = 1\nvalue = 30.0", fillcolor="#fffdfb"] ;
474 -> 475 ;
476 [label="squared_error = 0.0\nsamples = 1\nvalue = 50.0", fillcolor="#fefaf8"] ;
474 -> 476 ;
477 [label="squared_error = 0.0\nsamples = 2\nvalue = 50.0", fillcolor="#fefaf8"] ;
473 -> 477 ;
478 [label="squared_error = 0.0\nsamples = 1\nvalue = 290.0", fillcolor="#f8decb"] ;
350 -> 478 ;
479 [label="T3 <= 18.145\nsquared_error = 164.397\nsamples = 158\nvalue = 42.785", fillcolor="#fefbf9"] ;
349 -> 479 ;
480 [label="Total_Temperature <= 15.429\nsquared_error = 143.21\nsamples = 9\nvalue = 71.111", fillcolor="#fef8f4"] ;
479 -> 480 ;
481 [label="Total_Temperature <= 15.386\nsquared_error = 106.122\nsamples = 7\nvalue = 67.143", fillcolor="#fef8f4"] ;
480 -> 481 ;
482 [label="T5 <= 16.205\nsquared_error = 88.889\nsamples = 3\nvalue = 73.333", fillcolor="#fdf8f3"] ;
481 -> 482 ;
483 [label="squared_error = 0.0\nsamples = 1\nvalue = 60.0", fillcolor="#fef9f6"] ;
482 -> 483 ;
484 [label="squared_error = 0.0\nsamples = 2\nvalue = 80.0", fillcolor="#fdf7f2"] ;
482 -> 484 ;
485 [label="Tdewpoint <= -1.9\nsquared_error = 68.75\nsamples = 4\nvalue = 62.5", fillcolor="#fef9f5"] ;
481 -> 485 ;
486 [label="squared_error = 0.0\nsamples = 2\nvalue = 70.0", fillcolor="#fef8f4"] ;
485 -> 486 ;
487 [label="Tdewpoint <= -1.833\nsquared_error = 25.0\nsamples = 2\nvalue = 55.0", fillcolor="#fefaf7"] ;
485 -> 487 ;
488 [label="squared_error = 0.0\nsamples = 1\nvalue = 60.0", fillcolor="#fef9f6"] ;
487 -> 488 ;
489 [label="squared_error = 0.0\nsamples = 1\nvalue = 50.0", fillcolor="#fefaf8"] ;
487 -> 489 ;
490 [label="T5 <= 16.348\nsquared_error = 25.0\nsamples = 2\nvalue = 85.0", fillcolor="#fdf6f1"] ;
480 -> 490 ;
491 [label="squared_error = 0.0\nsamples = 1\nvalue = 80.0", fillcolor="#fdf7f2"] ;
490 -> 491 ;
492 [label="squared_error = 0.0\nsamples = 1\nvalue = 90.0", fillcolor="#fdf6f0"] ;
490 -> 492 ;
493 [label="T6 <= 0.25\nsquared_error = 114.283\nsamples = 149\nvalue = 41.074", fillcolor="#fefbf9"] ;
479 -> 493 ;
494 [label="T_out <= -0.1\nsquared_error = 114.286\nsamples = 7\nvalue = 60.0", fillcolor="#fef9f6"] ;
493 -> 494 ;
495 [label="T6 <= -1.23\nsquared_error = 25.0\nsamples = 4\nvalue = 55.0", fillcolor="#fefaf7"] ;
494 -> 495 ;
496 [label="squared_error = 0.0\nsamples = 1\nvalue = 60.0", fillcolor="#fef9f6"] ;
495 -> 496 ;
497 [label="T5 <= 18.15\nsquared_error = 22.222\nsamples = 3\nvalue = 53.333", fillcolor="#fefaf7"] ;
495 -> 497 ;
498 [label="squared_error = 0.0\nsamples = 2\nvalue = 50.0", fillcolor="#fefaf8"] ;
497 -> 498 ;
499 [label="squared_error = 0.0\nsamples = 1\nvalue = 60.0", fillcolor="#fef9f6"] ;
497 -> 499 ;
500 [label="T9 <= 17.823\nsquared_error = 155.556\nsamples = 3\nvalue = 66.667", fillcolor="#fef8f5"] ;
494 -> 500 ;
501 [label="squared_error = 0.0\nsamples = 1\nvalue = 50.0", fillcolor="#fefaf8"] ;
500 -> 501 ;
502 [label="T6 <= 0.133\nsquared_error = 25.0\nsamples = 2\nvalue = 75.0", fillcolor="#fdf7f3"] ;
500 -> 502 ;
503 [label="squared_error = 0.0\nsamples = 1\nvalue = 80.0", fillcolor="#fdf7f2"] ;
502 -> 503 ;
504 [label="squared_error = 0.0\nsamples = 1\nvalue = 70.0", fillcolor="#fef8f4"] ;
502 -> 504 ;
505 [label="T4 <= 17.332\nsquared_error = 95.755\nsamples = 142\nvalue = 40.141", fillcolor="#fefbf9"] ;
493 -> 505 ;
506 [label="T5 <= 17.683\nsquared_error = 93.474\nsamples = 71\nvalue = 37.183", fillcolor="#fefcfa"] ;
505 -> 506 ;
507 [label="Total_Temperature <= 15.924\nsquared_error = 87.377\nsamples = 69\nvalue = 37.681", fillcolor="#fefcfa"] ;
506 -> 507 ;
508 [label="Total_Temperature <= 15.707\nsquared_error = 80.127\nsamples = 47\nvalue = 39.149", fillcolor="#fefcfa"] ;
507 -> 508 ;
509 [label="Tdewpoint <= 2.55\nsquared_error = 90.234\nsamples = 32\nvalue = 36.875", fillcolor="#fefcfa"] ;
508 -> 509 ;
510 [label="Total_Temperature <= 15.47\nsquared_error = 83.663\nsamples = 31\nvalue = 37.419", fillcolor="#fefcfa"] ;
509 -> 510 ;
511 [label="T_out <= 3.117\nsquared_error = 22.222\nsamples = 9\nvalue = 43.333", fillcolor="#fefbf9"] ;
510 -> 511 ;
512 [label="T4 <= 16.162\nsquared_error = 12.245\nsamples = 7\nvalue = 41.429", fillcolor="#fefbf9"] ;
511 -> 512 ;
513 [label="squared_error = 0.0\nsamples = 6\nvalue = 40.0", fillcolor="#fefbf9"] ;
512 -> 513 ;
514 [label="squared_error = 0.0\nsamples = 1\nvalue = 50.0", fillcolor="#fefaf8"] ;
512 -> 514 ;
515 [label="squared_error = 0.0\nsamples = 2\nvalue = 50.0", fillcolor="#fefaf8"] ;
511 -> 515 ;
516 [label="Tdewpoint <= 1.267\nsquared_error = 88.636\nsamples = 22\nvalue = 35.0", fillcolor="#fefcfa"] ;
510 -> 516 ;
517 [label="T_out <= 3.65\nsquared_error = 72.75\nsamples = 20\nvalue = 36.5", fillcolor="#fefcfa"] ;
516 -> 517 ;
518 [label="T6 <= 3.797\nsquared_error = 51.556\nsamples = 15\nvalue = 38.667", fillcolor="#fefcfa"] ;
517 -> 518 ;
519 [label="T6 <= 3.062\nsquared_error = 55.556\nsamples = 6\nvalue = 33.333", fillcolor="#fefcfb"] ;
518 -> 519 ;
520 [label="squared_error = 0.0\nsamples = 3\nvalue = 40.0", fillcolor="#fefbf9"] ;
519 -> 520 ;
521 [label="T5 <= 16.208\nsquared_error = 22.222\nsamples = 3\nvalue = 26.667", fillcolor="#fffdfc"] ;
519 -> 521 ;
522 [label="Tdewpoint <= -1.65\nsquared_error = 25.0\nsamples = 2\nvalue = 25.0", fillcolor="#fffdfc"] ;
521 -> 522 ;
523 [label="squared_error = 0.0\nsamples = 1\nvalue = 20.0", fillcolor="#fffefd"] ;
522 -> 523 ;
524 [label="squared_error = 0.0\nsamples = 1\nvalue = 30.0", fillcolor="#fffdfb"] ;
522 -> 524 ;
525 [label="squared_error = 0.0\nsamples = 1\nvalue = 30.0", fillcolor="#fffdfb"] ;
521 -> 525 ;
526 [label="T9 <= 15.845\nsquared_error = 17.284\nsamples = 9\nvalue = 42.222", fillcolor="#fefbf9"] ;
518 -> 526 ;
527 [label="T6 <= 4.642\nsquared_error = 10.938\nsamples = 8\nvalue = 41.25", fillcolor="#fefbf9"] ;
526 -> 527 ;
528 [label="squared_error = 0.0\nsamples = 6\nvalue = 40.0", fillcolor="#fefbf9"] ;
527 -> 528 ;
529 [label="T5 <= 16.103\nsquared_error = 25.0\nsamples = 2\nvalue = 45.0", fillcolor="#fefbf9"] ;
527 -> 529 ;
530 [label="squared_error = 0.0\nsamples = 1\nvalue = 40.0", fillcolor="#fefbf9"] ;
529 -> 530 ;
531 [label="squared_error = 0.0\nsamples = 1\nvalue = 50.0", fillcolor="#fefaf8"] ;
529 -> 531 ;
532 [label="squared_error = 0.0\nsamples = 1\nvalue = 50.0", fillcolor="#fefaf8"] ;
526 -> 532 ;
533 [label="T3 <= 18.445\nsquared_error = 80.0\nsamples = 5\nvalue = 30.0", fillcolor="#fffdfb"] ;
517 -> 533 ;
534 [label="squared_error = 0.0\nsamples = 1\nvalue = 40.0", fillcolor="#fefbf9"] ;
533 -> 534 ;
535 [label="Total_Temperature <= 15.693\nsquared_error = 68.75\nsamples = 4\nvalue = 27.5", fillcolor="#fffdfc"] ;
533 -> 535 ;
536 [label="squared_error = 0.0\nsamples = 2\nvalue = 20.0", fillcolor="#fffefd"] ;
535 -> 536 ;
537 [label="T1 <= 18.408\nsquared_error = 25.0\nsamples = 2\nvalue = 35.0", fillcolor="#fefcfa"] ;
535 -> 537 ;
538 [label="squared_error = 0.0\nsamples = 1\nvalue = 30.0", fillcolor="#fffdfb"] ;
537 -> 538 ;
539 [label="squared_error = 0.0\nsamples = 1\nvalue = 40.0", fillcolor="#fefbf9"] ;
537 -> 539 ;
540 [label="squared_error = 0.0\nsamples = 2\nvalue = 20.0", fillcolor="#fffefd"] ;
516 -> 540 ;
541 [label="squared_error = 0.0\nsamples = 1\nvalue = 20.0", fillcolor="#fffefd"] ;
509 -> 541 ;
542 [label="T6 <= 3.397\nsquared_error = 24.0\nsamples = 15\nvalue = 44.0", fillcolor="#fefbf9"] ;
508 -> 542 ;
543 [label="Total_Temperature <= 15.899\nsquared_error = 9.0\nsamples = 10\nvalue = 41.0", fillcolor="#fefbf9"] ;
542 -> 543 ;
544 [label="squared_error = 0.0\nsamples = 8\nvalue = 40.0", fillcolor="#fefbf9"] ;
543 -> 544 ;
545 [label="T_out <= 3.725\nsquared_error = 25.0\nsamples = 2\nvalue = 45.0", fillcolor="#fefbf9"] ;
543 -> 545 ;
546 [label="squared_error = 0.0\nsamples = 1\nvalue = 50.0", fillcolor="#fefaf8"] ;
545 -> 546 ;
547 [label="squared_error = 0.0\nsamples = 1\nvalue = 40.0", fillcolor="#fefbf9"] ;
545 -> 547 ;
548 [label="squared_error = 0.0\nsamples = 5\nvalue = 50.0", fillcolor="#fefaf8"] ;
542 -> 548 ;
549 [label="T6 <= 2.339\nsquared_error = 88.43\nsamples = 22\nvalue = 34.545", fillcolor="#fefcfa"] ;
507 -> 549 ;
550 [label="squared_error = 0.0\nsamples = 3\nvalue = 20.0", fillcolor="#fffefd"] ;
549 -> 550 ;
551 [label="Total_Temperature <= 15.926\nsquared_error = 63.712\nsamples = 19\nvalue = 36.842", fillcolor="#fefcfa"] ;
549 -> 551 ;
552 [label="T4 <= 17.162\nsquared_error = 25.0\nsamples = 2\nvalue = 25.0", fillcolor="#fffdfc"] ;
551 -> 552 ;
553 [label="squared_error = 0.0\nsamples = 1\nvalue = 20.0", fillcolor="#fffefd"] ;
552 -> 553 ;
554 [label="squared_error = 0.0\nsamples = 1\nvalue = 30.0", fillcolor="#fffdfb"] ;
552 -> 554 ;
555 [label="Total_Temperature <= 15.947\nsquared_error = 49.827\nsamples = 17\nvalue = 38.235", fillcolor="#fefcfa"] ;
551 -> 555 ;
556 [label="T5 <= 16.859\nsquared_error = 25.0\nsamples = 4\nvalue = 45.0", fillcolor="#fefbf9"] ;
555 -> 556 ;
557 [label="T6 <= 4.515\nsquared_error = 22.222\nsamples = 3\nvalue = 43.333", fillcolor="#fefbf9"] ;
556 -> 557 ;
558 [label="squared_error = 0.0\nsamples = 2\nvalue = 40.0", fillcolor="#fefbf9"] ;
557 -> 558 ;
559 [label="squared_error = 0.0\nsamples = 1\nvalue = 50.0", fillcolor="#fefaf8"] ;
557 -> 559 ;
560 [label="squared_error = 0.0\nsamples = 1\nvalue = 50.0", fillcolor="#fefaf8"] ;
556 -> 560 ;
561 [label="Total_Temperature <= 15.951\nsquared_error = 39.053\nsamples = 13\nvalue = 36.154", fillcolor="#fefcfa"] ;
555 -> 561 ;
562 [label="squared_error = 0.0\nsamples = 1\nvalue = 20.0", fillcolor="#fffefd"] ;
561 -> 562 ;
563 [label="T9 <= 16.323\nsquared_error = 18.75\nsamples = 12\nvalue = 37.5", fillcolor="#fefcfa"] ;
561 -> 563 ;
564 [label="squared_error = 0.0\nsamples = 6\nvalue = 40.0", fillcolor="#fefbf9"] ;
563 -> 564 ;
565 [label="T5 <= 16.821\nsquared_error = 25.0\nsamples = 6\nvalue = 35.0", fillcolor="#fefcfa"] ;
563 -> 565 ;
566 [label="squared_error = 0.0\nsamples = 2\nvalue = 30.0", fillcolor="#fffdfb"] ;
565 -> 566 ;
567 [label="T5 <= 17.633\nsquared_error = 18.75\nsamples = 4\nvalue = 37.5", fillcolor="#fefcfa"] ;
565 -> 567 ;
568 [label="squared_error = 0.0\nsamples = 3\nvalue = 40.0", fillcolor="#fefbf9"] ;
567 -> 568 ;
569 [label="squared_error = 0.0\nsamples = 1\nvalue = 30.0", fillcolor="#fffdfb"] ;
567 -> 569 ;
570 [label="squared_error = 0.0\nsamples = 2\nvalue = 20.0", fillcolor="#fffefd"] ;
506 -> 570 ;
571 [label="T_out <= 2.908\nsquared_error = 80.54\nsamples = 71\nvalue = 43.099", fillcolor="#fefbf9"] ;
505 -> 571 ;
572 [label="Tdewpoint <= 2.0\nsquared_error = 72.959\nsamples = 28\nvalue = 46.429", fillcolor="#fefbf8"] ;
571 -> 572 ;
573 [label="T6 <= 0.35\nsquared_error = 48.077\nsamples = 26\nvalue = 45.0", fillcolor="#fefbf9"] ;
572 -> 573 ;
574 [label="squared_error = 0.0\nsamples = 2\nvalue = 30.0", fillcolor="#fffdfb"] ;
573 -> 574 ;
575 [label="T2 <= 17.857\nsquared_error = 31.771\nsamples = 24\nvalue = 46.25", fillcolor="#fefbf8"] ;
573 -> 575 ;
576 [label="Tdewpoint <= 1.75\nsquared_error = 24.943\nsamples = 21\nvalue = 45.238", fillcolor="#fefbf8"] ;
575 -> 576 ;
577 [label="Total_Temperature <= 16.656\nsquared_error = 23.438\nsamples = 16\nvalue = 43.75", fillcolor="#fefbf9"] ;
576 -> 577 ;
578 [label="T9 <= 17.745\nsquared_error = 12.245\nsamples = 7\nvalue = 41.429", fillcolor="#fefbf9"] ;
577 -> 578 ;
579 [label="T4 <= 17.6\nsquared_error = 25.0\nsamples = 2\nvalue = 45.0", fillcolor="#fefbf9"] ;
578 -> 579 ;
580 [label="squared_error = 0.0\nsamples = 1\nvalue = 40.0", fillcolor="#fefbf9"] ;
579 -> 580 ;
581 [label="squared_error = 0.0\nsamples = 1\nvalue = 50.0", fillcolor="#fefaf8"] ;
579 -> 581 ;
582 [label="squared_error = 0.0\nsamples = 5\nvalue = 40.0", fillcolor="#fefbf9"] ;
578 -> 582 ;
583 [label="T6 <= 2.767\nsquared_error = 24.691\nsamples = 9\nvalue = 45.556", fillcolor="#fefbf8"] ;
577 -> 583 ;
584 [label="squared_error = 0.0\nsamples = 4\nvalue = 50.0", fillcolor="#fefaf8"] ;
583 -> 584 ;
585 [label="T1 <= 18.832\nsquared_error = 16.0\nsamples = 5\nvalue = 42.0", fillcolor="#fefbf9"] ;
583 -> 585 ;
586 [label="squared_error = 0.0\nsamples = 1\nvalue = 50.0", fillcolor="#fefaf8"] ;
585 -> 586 ;
587 [label="squared_error = 0.0\nsamples = 4\nvalue = 40.0", fillcolor="#fefbf9"] ;
585 -> 587 ;
588 [label="squared_error = 0.0\nsamples = 5\nvalue = 50.0", fillcolor="#fefaf8"] ;
576 -> 588 ;
589 [label="T1 <= 18.715\nsquared_error = 22.222\nsamples = 3\nvalue = 53.333", fillcolor="#fefaf7"] ;
575 -> 589 ;
590 [label="Total_Temperature <= 15.637\nsquared_error = 25.0\nsamples = 2\nvalue = 55.0", fillcolor="#fefaf7"] ;
589 -> 590 ;
591 [label="squared_error = 0.0\nsamples = 1\nvalue = 50.0", fillcolor="#fefaf8"] ;
590 -> 591 ;
592 [label="squared_error = 0.0\nsamples = 1\nvalue = 60.0", fillcolor="#fef9f6"] ;
590 -> 592 ;
593 [label="squared_error = 0.0\nsamples = 1\nvalue = 50.0", fillcolor="#fefaf8"] ;
589 -> 593 ;
594 [label="Total_Temperature <= 16.676\nsquared_error = 25.0\nsamples = 2\nvalue = 65.0", fillcolor="#fef9f5"] ;
572 -> 594 ;
595 [label="squared_error = 0.0\nsamples = 1\nvalue = 60.0", fillcolor="#fef9f6"] ;
594 -> 595 ;
596 [label="squared_error = 0.0\nsamples = 1\nvalue = 70.0", fillcolor="#fef8f4"] ;
594 -> 596 ;
597 [label="Tdewpoint <= 0.817\nsquared_error = 73.553\nsamples = 43\nvalue = 40.93", fillcolor="#fefbf9"] ;
571 -> 597 ;
598 [label="T2 <= 17.73\nsquared_error = 122.222\nsamples = 6\nvalue = 33.333", fillcolor="#fefcfb"] ;
597 -> 598 ;
599 [label="Total_Temperature <= 15.908\nsquared_error = 22.222\nsamples = 3\nvalue = 43.333", fillcolor="#fefbf9"] ;
598 -> 599 ;
600 [label="squared_error = 0.0\nsamples = 1\nvalue = 50.0", fillcolor="#fefaf8"] ;
599 -> 600 ;
601 [label="squared_error = 0.0\nsamples = 2\nvalue = 40.0", fillcolor="#fefbf9"] ;
599 -> 601 ;
602 [label="Tdewpoint <= 0.733\nsquared_error = 22.222\nsamples = 3\nvalue = 23.333", fillcolor="#fffdfd"] ;
598 -> 602 ;
603 [label="squared_error = 0.0\nsamples = 1\nvalue = 30.0", fillcolor="#fffdfb"] ;
602 -> 603 ;
604 [label="squared_error = 0.0\nsamples = 2\nvalue = 20.0", fillcolor="#fffefd"] ;
602 -> 604 ;
605 [label="T3 <= 20.245\nsquared_error = 54.785\nsamples = 37\nvalue = 42.162", fillcolor="#fefbf9"] ;
597 -> 605 ;
606 [label="T5 <= 18.617\nsquared_error = 45.415\nsamples = 34\nvalue = 43.235", fillcolor="#fefbf9"] ;
605 -> 606 ;
607 [label="Tdewpoint <= 2.292\nsquared_error = 31.629\nsamples = 29\nvalue = 44.483", fillcolor="#fefbf9"] ;
606 -> 607 ;
608 [label="T6 <= 2.745\nsquared_error = 24.306\nsamples = 24\nvalue = 45.833", fillcolor="#fefbf8"] ;
607 -> 608 ;
609 [label="T3 <= 19.517\nsquared_error = 22.222\nsamples = 9\nvalue = 43.333", fillcolor="#fefbf9"] ;
608 -> 609 ;
610 [label="squared_error = 0.0\nsamples = 2\nvalue = 50.0", fillcolor="#fefaf8"] ;
609 -> 610 ;
611 [label="T4 <= 17.567\nsquared_error = 12.245\nsamples = 7\nvalue = 41.429", fillcolor="#fefbf9"] ;
609 -> 611 ;
612 [label="squared_error = 0.0\nsamples = 5\nvalue = 40.0", fillcolor="#fefbf9"] ;
611 -> 612 ;
613 [label="Tdewpoint <= 0.983\nsquared_error = 25.0\nsamples = 2\nvalue = 45.0", fillcolor="#fefbf9"] ;
611 -> 613 ;
614 [label="squared_error = 0.0\nsamples = 1\nvalue = 40.0", fillcolor="#fefbf9"] ;
613 -> 614 ;
615 [label="squared_error = 0.0\nsamples = 1\nvalue = 50.0", fillcolor="#fefaf8"] ;
613 -> 615 ;
616 [label="T_out <= 3.217\nsquared_error = 19.556\nsamples = 15\nvalue = 47.333", fillcolor="#fefbf8"] ;
608 -> 616 ;
617 [label="squared_error = 0.0\nsamples = 5\nvalue = 50.0", fillcolor="#fefaf8"] ;
616 -> 617 ;
618 [label="T_out <= 3.275\nsquared_error = 24.0\nsamples = 10\nvalue = 46.0", fillcolor="#fefbf8"] ;
616 -> 618 ;
619 [label="squared_error = 0.0\nsamples = 3\nvalue = 40.0", fillcolor="#fefbf9"] ;
618 -> 619 ;
620 [label="T5 <= 18.533\nsquared_error = 12.245\nsamples = 7\nvalue = 48.571", fillcolor="#fefaf8"] ;
618 -> 620 ;
621 [label="squared_error = 0.0\nsamples = 5\nvalue = 50.0", fillcolor="#fefaf8"] ;
620 -> 621 ;
622 [label="Total_Temperature <= 17.183\nsquared_error = 25.0\nsamples = 2\nvalue = 45.0", fillcolor="#fefbf9"] ;
620 -> 622 ;
623 [label="squared_error = 0.0\nsamples = 1\nvalue = 40.0", fillcolor="#fefbf9"] ;
622 -> 623 ;
624 [label="squared_error = 0.0\nsamples = 1\nvalue = 50.0", fillcolor="#fefaf8"] ;
622 -> 624 ;
625 [label="Tdewpoint <= 2.325\nsquared_error = 16.0\nsamples = 5\nvalue = 38.0", fillcolor="#fefcfa"] ;
607 -> 625 ;
626 [label="squared_error = 0.0\nsamples = 3\nvalue = 40.0", fillcolor="#fefbf9"] ;
625 -> 626 ;
627 [label="Tdewpoint <= 2.35\nsquared_error = 25.0\nsamples = 2\nvalue = 35.0", fillcolor="#fefcfa"] ;
625 -> 627 ;
628 [label="squared_error = 0.0\nsamples = 1\nvalue = 30.0", fillcolor="#fffdfb"] ;
627 -> 628 ;
629 [label="squared_error = 0.0\nsamples = 1\nvalue = 40.0", fillcolor="#fefbf9"] ;
627 -> 629 ;
630 [label="Total_Temperature <= 17.227\nsquared_error = 64.0\nsamples = 5\nvalue = 36.0", fillcolor="#fefcfa"] ;
606 -> 630 ;
631 [label="squared_error = 0.0\nsamples = 3\nvalue = 30.0", fillcolor="#fffdfb"] ;
630 -> 631 ;
632 [label="Tdewpoint <= 2.267\nsquared_error = 25.0\nsamples = 2\nvalue = 45.0", fillcolor="#fefbf9"] ;
630 -> 632 ;
633 [label="squared_error = 0.0\nsamples = 1\nvalue = 50.0", fillcolor="#fefaf8"] ;
632 -> 633 ;
634 [label="squared_error = 0.0\nsamples = 1\nvalue = 40.0", fillcolor="#fefbf9"] ;
632 -> 634 ;
635 [label="squared_error = 0.0\nsamples = 3\nvalue = 30.0", fillcolor="#fffdfb"] ;
605 -> 635 ;
636 [label="T3 <= 19.472\nsquared_error = 4759.318\nsamples = 676\nvalue = 69.956", fillcolor="#fef8f4"] ;
348 -> 636 ;
637 [label="T1 <= 18.982\nsquared_error = 26196.694\nsamples = 33\nvalue = 161.818", fillcolor="#fbede3"] ;
636 -> 637 ;
638 [label="Tdewpoint <= 1.158\nsquared_error = 5187.902\nsamples = 23\nvalue = 103.478", fillcolor="#fdf4ee"] ;
637 -> 638 ;
639 [label="T_out <= 0.758\nsquared_error = 1762.75\nsamples = 20\nvalue = 83.5", fillcolor="#fdf6f1"] ;
638 -> 639 ;
640 [label="T_out <= 0.675\nsquared_error = 400.0\nsamples = 2\nvalue = 130.0", fillcolor="#fcf1e9"] ;
639 -> 640 ;
641 [label="squared_error = 0.0\nsamples = 1\nvalue = 150.0", fillcolor="#fcefe5"] ;
640 -> 641 ;
642 [label="squared_error = 0.0\nsamples = 1\nvalue = 110.0", fillcolor="#fdf3ec"] ;
640 -> 642 ;
643 [label="T6 <= 2.482\nsquared_error = 1647.222\nsamples = 18\nvalue = 78.333", fillcolor="#fdf7f2"] ;
639 -> 643 ;
644 [label="T4 <= 18.167\nsquared_error = 105.0\nsamples = 10\nvalue = 65.0", fillcolor="#fef9f5"] ;
643 -> 644 ;
645 [label="T5 <= 16.382\nsquared_error = 25.0\nsamples = 4\nvalue = 55.0", fillcolor="#fefaf7"] ;
644 -> 645 ;
646 [label="squared_error = 0.0\nsamples = 2\nvalue = 50.0", fillcolor="#fefaf8"] ;
645 -> 646 ;
647 [label="squared_error = 0.0\nsamples = 2\nvalue = 60.0", fillcolor="#fef9f6"] ;
645 -> 647 ;
648 [label="T9 <= 18.05\nsquared_error = 47.222\nsamples = 6\nvalue = 71.667", fillcolor="#fef8f4"] ;
644 -> 648 ;
649 [label="T2 <= 17.05\nsquared_error = 18.75\nsamples = 4\nvalue = 67.5", fillcolor="#fef8f4"] ;
648 -> 649 ;
650 [label="squared_error = 0.0\nsamples = 1\nvalue = 60.0", fillcolor="#fef9f6"] ;
649 -> 650 ;
651 [label="squared_error = 0.0\nsamples = 3\nvalue = 70.0", fillcolor="#fef8f4"] ;
649 -> 651 ;
652 [label="squared_error = 0.0\nsamples = 2\nvalue = 80.0", fillcolor="#fdf7f2"] ;
648 -> 652 ;
653 [label="T6 <= 2.597\nsquared_error = 3075.0\nsamples = 8\nvalue = 95.0", fillcolor="#fdf5ef"] ;
643 -> 653 ;
654 [label="squared_error = 0.0\nsamples = 1\nvalue = 230.0", fillcolor="#fae5d6"] ;
653 -> 654 ;
655 [label="T9 <= 16.35\nsquared_error = 538.776\nsamples = 7\nvalue = 75.714", fillcolor="#fdf7f3"] ;
653 -> 655 ;
656 [label="T9 <= 15.945\nsquared_error = 55.556\nsamples = 6\nvalue = 66.667", fillcolor="#fef8f5"] ;
655 -> 656 ;
657 [label="T9 <= 15.908\nsquared_error = 25.0\nsamples = 2\nvalue = 75.0", fillcolor="#fdf7f3"] ;
656 -> 657 ;
658 [label="squared_error = 0.0\nsamples = 1\nvalue = 70.0", fillcolor="#fef8f4"] ;
657 -> 658 ;
659 [label="squared_error = 0.0\nsamples = 1\nvalue = 80.0", fillcolor="#fdf7f2"] ;
657 -> 659 ;
660 [label="T4 <= 18.567\nsquared_error = 18.75\nsamples = 4\nvalue = 62.5", fillcolor="#fef9f5"] ;
656 -> 660 ;
661 [label="squared_error = 0.0\nsamples = 3\nvalue = 60.0", fillcolor="#fef9f6"] ;
660 -> 661 ;
662 [label="squared_error = 0.0\nsamples = 1\nvalue = 70.0", fillcolor="#fef8f4"] ;
660 -> 662 ;
663 [label="squared_error = 0.0\nsamples = 1\nvalue = 130.0", fillcolor="#fcf1e9"] ;
655 -> 663 ;
664 [label="T6 <= 3.76\nsquared_error = 7622.222\nsamples = 3\nvalue = 236.667", fillcolor="#f9e4d5"] ;
638 -> 664 ;
665 [label="T_out <= 1.9\nsquared_error = 8100.0\nsamples = 2\nvalue = 270.0", fillcolor="#f9e0cf"] ;
664 -> 665 ;
666 [label="squared_error = 0.0\nsamples = 1\nvalue = 180.0", fillcolor="#fbebe0"] ;
665 -> 666 ;
667 [label="squared_error = 0.0\nsamples = 1\nvalue = 360.0", fillcolor="#f6d6be"] ;
665 -> 667 ;
668 [label="squared_error = 0.0\nsamples = 1\nvalue = 170.0", fillcolor="#fbece1"] ;
664 -> 668 ;
669 [label="Total_Temperature <= 16.536\nsquared_error = 48684.0\nsamples = 10\nvalue = 296.0", fillcolor="#f8ddca"] ;
637 -> 669 ;
670 [label="T2 <= 17.083\nsquared_error = 17998.438\nsamples = 8\nvalue = 203.75", fillcolor="#fae8db"] ;
669 -> 670 ;
671 [label="Total_Temperature <= 16.481\nsquared_error = 1088.889\nsamples = 3\nvalue = 356.667", fillcolor="#f7d6bf"] ;
670 -> 671 ;
672 [label="squared_error = 0.0\nsamples = 1\nvalue = 400.0", fillcolor="#f6d1b7"] ;
671 -> 672 ;
673 [label="T6 <= -0.1\nsquared_error = 225.0\nsamples = 2\nvalue = 335.0", fillcolor="#f7d9c3"] ;
671 -> 673 ;
674 [label="squared_error = 0.0\nsamples = 1\nvalue = 320.0", fillcolor="#f7dac6"] ;
673 -> 674 ;
675 [label="squared_error = 0.0\nsamples = 1\nvalue = 350.0", fillcolor="#f7d7c0"] ;
673 -> 675 ;
676 [label="T6 <= -2.023\nsquared_error = 5696.0\nsamples = 5\nvalue = 112.0", fillcolor="#fdf3ec"] ;
670 -> 676 ;
677 [label="squared_error = 0.0\nsamples = 1\nvalue = 230.0", fillcolor="#fae5d6"] ;
676 -> 677 ;
678 [label="T9 <= 17.517\nsquared_error = 2768.75\nsamples = 4\nvalue = 82.5", fillcolor="#fdf6f2"] ;
676 -> 678 ;
679 [label="T3 <= 19.408\nsquared_error = 288.889\nsamples = 3\nvalue = 53.333", fillcolor="#fefaf7"] ;
678 -> 679 ;
680 [label="T4 <= 18.3\nsquared_error = 25.0\nsamples = 2\nvalue = 65.0", fillcolor="#fef9f5"] ;
679 -> 680 ;
681 [label="squared_error = 0.0\nsamples = 1\nvalue = 60.0", fillcolor="#fef9f6"] ;
680 -> 681 ;
682 [label="squared_error = 0.0\nsamples = 1\nvalue = 70.0", fillcolor="#fef8f4"] ;
680 -> 682 ;
683 [label="squared_error = 0.0\nsamples = 1\nvalue = 30.0", fillcolor="#fffdfb"] ;
679 -> 683 ;
684 [label="squared_error = 0.0\nsamples = 1\nvalue = 170.0", fillcolor="#fbece1"] ;
678 -> 684 ;
685 [label="T2 <= 17.428\nsquared_error = 1225.0\nsamples = 2\nvalue = 665.0", fillcolor="#efb286"] ;
669 -> 685 ;
686 [label="squared_error = 0.0\nsamples = 1\nvalue = 700.0", fillcolor="#eeae7f"] ;
685 -> 686 ;
687 [label="squared_error = 0.0\nsamples = 1\nvalue = 630.0", fillcolor="#f0b68c"] ;
685 -> 687 ;
688 [label="Total_Temperature <= 16.112\nsquared_error = 3203.791\nsamples = 643\nvalue = 65.241", fillcolor="#fef8f5"] ;
636 -> 688 ;
689 [label="T2 <= 17.633\nsquared_error = 4900.0\nsamples = 2\nvalue = 270.0", fillcolor="#f9e0cf"] ;
688 -> 689 ;
690 [label="squared_error = 0.0\nsamples = 1\nvalue = 340.0", fillcolor="#f7d8c2"] ;
689 -> 690 ;
691 [label="squared_error = 0.0\nsamples = 1\nvalue = 200.0", fillcolor="#fae9dc"] ;
689 -> 691 ;
692 [label="T4 <= 18.142\nsquared_error = 3067.275\nsamples = 641\nvalue = 64.602", fillcolor="#fef9f5"] ;
688 -> 692 ;
693 [label="Tdewpoint <= 2.408\nsquared_error = 10099.773\nsamples = 42\nvalue = 103.81", fillcolor="#fdf4ee"] ;
692 -> 693 ;
694 [label="month <= 2.5\nsquared_error = 6682.972\nsamples = 39\nvalue = 91.282", fillcolor="#fdf5f0"] ;
693 -> 694 ;
695 [label="Total_Temperature <= 16.265\nsquared_error = 717.97\nsamples = 27\nvalue = 59.259", fillcolor="#fef9f6"] ;
694 -> 695 ;
696 [label="Total_Temperature <= 16.162\nsquared_error = 744.0\nsamples = 5\nvalue = 106.0", fillcolor="#fdf4ed"] ;
695 -> 696 ;
697 [label="Total_Temperature <= 16.132\nsquared_error = 225.0\nsamples = 2\nvalue = 135.0", fillcolor="#fcf0e8"] ;
696 -> 697 ;
698 [label="squared_error = 0.0\nsamples = 1\nvalue = 150.0", fillcolor="#fcefe5"] ;
697 -> 698 ;
699 [label="squared_error = 0.0\nsamples = 1\nvalue = 120.0", fillcolor="#fcf2eb"] ;
697 -> 699 ;
700 [label="T2 <= 17.712\nsquared_error = 155.556\nsamples = 3\nvalue = 86.667", fillcolor="#fdf6f1"] ;
696 -> 700 ;
701 [label="squared_error = 0.0\nsamples = 1\nvalue = 70.0", fillcolor="#fef8f4"] ;
700 -> 701 ;
702 [label="T3 <= 19.9\nsquared_error = 25.0\nsamples = 2\nvalue = 95.0", fillcolor="#fdf5ef"] ;
700 -> 702 ;
703 [label="squared_error = 0.0\nsamples = 1\nvalue = 90.0", fillcolor="#fdf6f0"] ;
702 -> 703 ;
704 [label="squared_error = 0.0\nsamples = 1\nvalue = 100.0", fillcolor="#fdf4ee"] ;
702 -> 704 ;
705 [label="T4 <= 18.083\nsquared_error = 102.686\nsamples = 22\nvalue = 48.636", fillcolor="#fefaf8"] ;
695 -> 705 ;
706 [label="Tdewpoint <= -3.142\nsquared_error = 64.0\nsamples = 10\nvalue = 56.0", fillcolor="#fefaf6"] ;
705 -> 706 ;
707 [label="squared_error = 0.0\nsamples = 1\nvalue = 40.0", fillcolor="#fefbf9"] ;
706 -> 707 ;
708 [label="T1 <= 18.995\nsquared_error = 39.506\nsamples = 9\nvalue = 57.778", fillcolor="#fef9f6"] ;
706 -> 708 ;
709 [label="squared_error = 0.0\nsamples = 1\nvalue = 70.0", fillcolor="#fef8f4"] ;
708 -> 709 ;
710 [label="T2 <= 17.857\nsquared_error = 23.438\nsamples = 8\nvalue = 56.25", fillcolor="#fefaf6"] ;
708 -> 710 ;
711 [label="T1 <= 19.963\nsquared_error = 13.889\nsamples = 6\nvalue = 58.333", fillcolor="#fef9f6"] ;
710 -> 711 ;
712 [label="squared_error = 0.0\nsamples = 4\nvalue = 60.0", fillcolor="#fef9f6"] ;
711 -> 712 ;
713 [label="T5 <= 18.326\nsquared_error = 25.0\nsamples = 2\nvalue = 55.0", fillcolor="#fefaf7"] ;
711 -> 713 ;
714 [label="squared_error = 0.0\nsamples = 1\nvalue = 50.0", fillcolor="#fefaf8"] ;
713 -> 714 ;
715 [label="squared_error = 0.0\nsamples = 1\nvalue = 60.0", fillcolor="#fef9f6"] ;
713 -> 715 ;
716 [label="squared_error = 0.0\nsamples = 2\nvalue = 50.0", fillcolor="#fefaf8"] ;
710 -> 716 ;
717 [label="T6 <= 5.545\nsquared_error = 52.083\nsamples = 12\nvalue = 42.5", fillcolor="#fefbf9"] ;
705 -> 717 ;
718 [label="T_out <= 3.85\nsquared_error = 44.444\nsamples = 9\nvalue = 40.0", fillcolor="#fefbf9"] ;
717 -> 718 ;
719 [label="Tdewpoint <= 1.942\nsquared_error = 20.408\nsamples = 7\nvalue = 42.857", fillcolor="#fefbf9"] ;
718 -> 719 ;
720 [label="T9 <= 16.76\nsquared_error = 22.222\nsamples = 3\nvalue = 46.667", fillcolor="#fefbf8"] ;
719 -> 720 ;
721 [label="squared_error = 0.0\nsamples = 2\nvalue = 50.0", fillcolor="#fefaf8"] ;
720 -> 721 ;
722 [label="squared_error = 0.0\nsamples = 1\nvalue = 40.0", fillcolor="#fefbf9"] ;
720 -> 722 ;
723 [label="squared_error = 0.0\nsamples = 4\nvalue = 40.0", fillcolor="#fefbf9"] ;
719 -> 723 ;
724 [label="squared_error = 0.0\nsamples = 2\nvalue = 30.0", fillcolor="#fffdfb"] ;
718 -> 724 ;
725 [label="squared_error = 0.0\nsamples = 3\nvalue = 50.0", fillcolor="#fefaf8"] ;
717 -> 725 ;
726 [label="T_out <= 2.525\nsquared_error = 12605.556\nsamples = 12\nvalue = 163.333", fillcolor="#fbede3"] ;
694 -> 726 ;
727 [label="T4 <= 18.083\nsquared_error = 1868.75\nsamples = 4\nvalue = 317.5", fillcolor="#f8dbc6"] ;
726 -> 727 ;
728 [label="Total_Temperature <= 16.676\nsquared_error = 25.0\nsamples = 2\nvalue = 275.0", fillcolor="#f9e0ce"] ;
727 -> 728 ;
729 [label="squared_error = 0.0\nsamples = 1\nvalue = 280.0", fillcolor="#f8dfcd"] ;
728 -> 729 ;
730 [label="squared_error = 0.0\nsamples = 1\nvalue = 270.0", fillcolor="#f9e0cf"] ;
728 -> 730 ;
731 [label="T3 <= 20.198\nsquared_error = 100.0\nsamples = 2\nvalue = 360.0", fillcolor="#f6d6be"] ;
727 -> 731 ;
732 [label="squared_error = 0.0\nsamples = 1\nvalue = 370.0", fillcolor="#f6d5bc"] ;
731 -> 732 ;
733 [label="squared_error = 0.0\nsamples = 1\nvalue = 350.0", fillcolor="#f7d7c0"] ;
731 -> 733 ;
734 [label="Tdewpoint <= 2.258\nsquared_error = 148.438\nsamples = 8\nvalue = 86.25", fillcolor="#fdf6f1"] ;
726 -> 734 ;
735 [label="Tdewpoint <= 2.208\nsquared_error = 24.0\nsamples = 5\nvalue = 94.0", fillcolor="#fdf5ef"] ;
734 -> 735 ;
736 [label="squared_error = 0.0\nsamples = 3\nvalue = 90.0", fillcolor="#fdf6f0"] ;
735 -> 736 ;
737 [label="squared_error = 0.0\nsamples = 2\nvalue = 100.0", fillcolor="#fdf4ee"] ;
735 -> 737 ;
738 [label="Tdewpoint <= 2.292\nsquared_error = 88.889\nsamples = 3\nvalue = 73.333", fillcolor="#fdf8f3"] ;
734 -> 738 ;
739 [label="squared_error = 0.0\nsamples = 2\nvalue = 80.0", fillcolor="#fdf7f2"] ;
738 -> 739 ;
740 [label="squared_error = 0.0\nsamples = 1\nvalue = 60.0", fillcolor="#fef9f6"] ;
738 -> 740 ;
741 [label="month <= 1.5\nsquared_error = 25955.556\nsamples = 3\nvalue = 266.667", fillcolor="#f9e1d0"] ;
693 -> 741 ;
742 [label="T_out <= 3.925\nsquared_error = 400.0\nsamples = 2\nvalue = 380.0", fillcolor="#f6d3bb"] ;
741 -> 742 ;
743 [label="squared_error = 0.0\nsamples = 1\nvalue = 400.0", fillcolor="#f6d1b7"] ;
742 -> 743 ;
744 [label="squared_error = 0.0\nsamples = 1\nvalue = 360.0", fillcolor="#f6d6be"] ;
742 -> 744 ;
745 [label="squared_error = 0.0\nsamples = 1\nvalue = 40.0", fillcolor="#fefbf9"] ;
741 -> 745 ;
746 [label="T6 <= 4.515\nsquared_error = 2458.837\nsamples = 599\nvalue = 61.853", fillcolor="#fef9f5"] ;
692 -> 746 ;
747 [label="T9 <= 19.34\nsquared_error = 2095.326\nsamples = 566\nvalue = 59.717", fillcolor="#fef9f6"] ;
746 -> 747 ;
748 [label="T5 <= 18.745\nsquared_error = 1624.893\nsamples = 499\nvalue = 56.453", fillcolor="#fefaf6"] ;
747 -> 748 ;
749 [label="T4 <= 18.348\nsquared_error = 1365.26\nsamples = 435\nvalue = 54.345", fillcolor="#fefaf7"] ;
748 -> 749 ;
750 [label="T_out <= 3.75\nsquared_error = 3430.112\nsamples = 39\nvalue = 74.872", fillcolor="#fdf7f3"] ;
749 -> 750 ;
751 [label="Tdewpoint <= -1.975\nsquared_error = 1802.922\nsamples = 37\nvalue = 65.676", fillcolor="#fef8f5"] ;
750 -> 751 ;
752 [label="T2 <= 17.667\nsquared_error = 5468.75\nsamples = 4\nvalue = 142.5", fillcolor="#fcefe6"] ;
751 -> 752 ;
753 [label="T4 <= 18.27\nsquared_error = 100.0\nsamples = 2\nvalue = 80.0", fillcolor="#fdf7f2"] ;
752 -> 753 ;
754 [label="squared_error = 0.0\nsamples = 1\nvalue = 90.0", fillcolor="#fdf6f0"] ;
753 -> 754 ;
755 [label="squared_error = 0.0\nsamples = 1\nvalue = 70.0", fillcolor="#fef8f4"] ;
753 -> 755 ;
756 [label="Total_Temperature <= 16.721\nsquared_error = 3025.0\nsamples = 2\nvalue = 205.0", fillcolor="#fae8db"] ;
752 -> 756 ;
757 [label="squared_error = 0.0\nsamples = 1\nvalue = 260.0", fillcolor="#f9e2d1"] ;
756 -> 757 ;
758 [label="squared_error = 0.0\nsamples = 1\nvalue = 150.0", fillcolor="#fcefe5"] ;
756 -> 758 ;
759 [label="T3 <= 19.517\nsquared_error = 556.474\nsamples = 33\nvalue = 56.364", fillcolor="#fefaf6"] ;
751 -> 759 ;
760 [label="squared_error = 0.0\nsamples = 1\nvalue = 150.0", fillcolor="#fcefe5"] ;
759 -> 760 ;
761 [label="Total_Temperature <= 16.576\nsquared_error = 291.309\nsamples = 32\nvalue = 53.438", fillcolor="#fefaf7"] ;
759 -> 761 ;
762 [label="T3 <= 19.583\nsquared_error = 78.222\nsamples = 15\nvalue = 41.333", fillcolor="#fefbf9"] ;
761 -> 762 ;
763 [label="month <= 2.5\nsquared_error = 25.0\nsamples = 2\nvalue = 25.0", fillcolor="#fffdfc"] ;
762 -> 763 ;
764 [label="squared_error = 0.0\nsamples = 1\nvalue = 30.0", fillcolor="#fffdfb"] ;
763 -> 764 ;
765 [label="squared_error = 0.0\nsamples = 1\nvalue = 20.0", fillcolor="#fffefd"] ;
763 -> 765 ;
766 [label="Tdewpoint <= -1.708\nsquared_error = 39.053\nsamples = 13\nvalue = 43.846", fillcolor="#fefbf9"] ;
762 -> 766 ;
767 [label="squared_error = 0.0\nsamples = 1\nvalue = 30.0", fillcolor="#fffdfb"] ;
766 -> 767 ;
768 [label="Total_Temperature <= 16.495\nsquared_error = 25.0\nsamples = 12\nvalue = 45.0", fillcolor="#fefbf9"] ;
766 -> 768 ;
769 [label="Total_Temperature <= 16.439\nsquared_error = 20.408\nsamples = 7\nvalue = 42.857", fillcolor="#fefbf9"] ;
768 -> 769 ;
770 [label="Tdewpoint <= -1.433\nsquared_error = 22.222\nsamples = 3\nvalue = 46.667", fillcolor="#fefbf8"] ;
769 -> 770 ;
771 [label="squared_error = 0.0\nsamples = 1\nvalue = 40.0", fillcolor="#fefbf9"] ;
770 -> 771 ;
772 [label="squared_error = 0.0\nsamples = 2\nvalue = 50.0", fillcolor="#fefaf8"] ;
770 -> 772 ;
773 [label="squared_error = 0.0\nsamples = 4\nvalue = 40.0", fillcolor="#fefbf9"] ;
769 -> 773 ;
774 [label="T6 <= 1.245\nsquared_error = 16.0\nsamples = 5\nvalue = 48.0", fillcolor="#fefbf8"] ;
768 -> 774 ;
775 [label="squared_error = 0.0\nsamples = 3\nvalue = 50.0", fillcolor="#fefaf8"] ;
774 -> 775 ;
776 [label="T_out <= 3.342\nsquared_error = 25.0\nsamples = 2\nvalue = 45.0", fillcolor="#fefbf9"] ;
774 -> 776 ;
777 [label="squared_error = 0.0\nsamples = 1\nvalue = 40.0", fillcolor="#fefbf9"] ;
776 -> 777 ;
778 [label="squared_error = 0.0\nsamples = 1\nvalue = 50.0", fillcolor="#fefaf8"] ;
776 -> 778 ;
779 [label="Tdewpoint <= -1.683\nsquared_error = 235.986\nsamples = 17\nvalue = 64.118", fillcolor="#fef9f5"] ;
761 -> 779 ;
780 [label="T1 <= 19.133\nsquared_error = 125.0\nsamples = 4\nvalue = 45.0", fillcolor="#fefbf9"] ;
779 -> 780 ;
781 [label="T4 <= 18.307\nsquared_error = 25.0\nsamples = 2\nvalue = 55.0", fillcolor="#fefaf7"] ;
780 -> 781 ;
782 [label="squared_error = 0.0\nsamples = 1\nvalue = 60.0", fillcolor="#fef9f6"] ;
781 -> 782 ;
783 [label="squared_error = 0.0\nsamples = 1\nvalue = 50.0", fillcolor="#fefaf8"] ;
781 -> 783 ;
784 [label="T3 <= 19.715\nsquared_error = 25.0\nsamples = 2\nvalue = 35.0", fillcolor="#fefcfa"] ;
780 -> 784 ;
785 [label="squared_error = 0.0\nsamples = 1\nvalue = 40.0", fillcolor="#fefbf9"] ;
784 -> 785 ;
786 [label="squared_error = 0.0\nsamples = 1\nvalue = 30.0", fillcolor="#fffdfb"] ;
784 -> 786 ;
787 [label="T_out <= 2.9\nsquared_error = 123.077\nsamples = 13\nvalue = 70.0", fillcolor="#fef8f4"] ;
779 -> 787 ;
788 [label="Total_Temperature <= 16.904\nsquared_error = 97.222\nsamples = 12\nvalue = 68.333", fillcolor="#fef8f4"] ;
787 -> 788 ;
789 [label="T5 <= 17.783\nsquared_error = 88.889\nsamples = 6\nvalue = 73.333", fillcolor="#fdf8f3"] ;
788 -> 789 ;
790 [label="Total_Temperature <= 16.586\nsquared_error = 40.0\nsamples = 5\nvalue = 70.0", fillcolor="#fef8f4"] ;
789 -> 790 ;
791 [label="squared_error = 0.0\nsamples = 1\nvalue = 60.0", fillcolor="#fef9f6"] ;
790 -> 791 ;
792 [label="Tdewpoint <= -1.65\nsquared_error = 18.75\nsamples = 4\nvalue = 72.5", fillcolor="#fdf8f3"] ;
790 -> 792 ;
793 [label="squared_error = 0.0\nsamples = 1\nvalue = 80.0", fillcolor="#fdf7f2"] ;
792 -> 793 ;
794 [label="squared_error = 0.0\nsamples = 3\nvalue = 70.0", fillcolor="#fef8f4"] ;
792 -> 794 ;
795 [label="squared_error = 0.0\nsamples = 1\nvalue = 90.0", fillcolor="#fdf6f0"] ;
789 -> 795 ;
796 [label="T4 <= 18.245\nsquared_error = 55.556\nsamples = 6\nvalue = 63.333", fillcolor="#fef9f5"] ;
788 -> 796 ;
797 [label="squared_error = 0.0\nsamples = 3\nvalue = 70.0", fillcolor="#fef8f4"] ;
796 -> 797 ;
798 [label="T_out <= 2.0\nsquared_error = 22.222\nsamples = 3\nvalue = 56.667", fillcolor="#fefaf6"] ;
796 -> 798 ;
799 [label="squared_error = 0.0\nsamples = 1\nvalue = 50.0", fillcolor="#fefaf8"] ;
798 -> 799 ;
800 [label="squared_error = 0.0\nsamples = 2\nvalue = 60.0", fillcolor="#fef9f6"] ;
798 -> 800 ;
801 [label="squared_error = 0.0\nsamples = 1\nvalue = 90.0", fillcolor="#fdf6f0"] ;
787 -> 801 ;
802 [label="T_out <= 4.192\nsquared_error = 3025.0\nsamples = 2\nvalue = 245.0", fillcolor="#f9e3d4"] ;
750 -> 802 ;
803 [label="squared_error = 0.0\nsamples = 1\nvalue = 300.0", fillcolor="#f8ddc9"] ;
802 -> 803 ;
804 [label="squared_error = 0.0\nsamples = 1\nvalue = 190.0", fillcolor="#fbeade"] ;
802 -> 804 ;
805 [label="T6 <= -2.642\nsquared_error = 1116.32\nsamples = 396\nvalue = 52.323", fillcolor="#fefaf7"] ;
749 -> 805 ;
806 [label="T_out <= -0.683\nsquared_error = 625.0\nsamples = 2\nvalue = 125.0", fillcolor="#fcf1ea"] ;
805 -> 806 ;
807 [label="squared_error = 0.0\nsamples = 1\nvalue = 100.0", fillcolor="#fdf4ee"] ;
806 -> 807 ;
808 [label="squared_error = 0.0\nsamples = 1\nvalue = 150.0", fillcolor="#fcefe5"] ;
806 -> 808 ;
809 [label="T4 <= 19.954\nsquared_error = 1091.866\nsamples = 394\nvalue = 51.954", fillcolor="#fefaf7"] ;
805 -> 809 ;
810 [label="T9 <= 17.688\nsquared_error = 921.845\nsamples = 387\nvalue = 51.292", fillcolor="#fefaf7"] ;
809 -> 810 ;
811 [label="T9 <= 16.88\nsquared_error = 209.307\nsamples = 117\nvalue = 45.556", fillcolor="#fefbf8"] ;
810 -> 811 ;
812 [label="T4 <= 18.76\nsquared_error = 200.0\nsamples = 3\nvalue = 80.0", fillcolor="#fdf7f2"] ;
811 -> 812 ;
813 [label="squared_error = 0.0\nsamples = 2\nvalue = 70.0", fillcolor="#fef8f4"] ;
812 -> 813 ;
814 [label="squared_error = 0.0\nsamples = 1\nvalue = 100.0", fillcolor="#fdf4ee"] ;
812 -> 814 ;
815 [label="T2 <= 16.408\nsquared_error = 177.508\nsamples = 114\nvalue = 44.649", fillcolor="#fefbf9"] ;
811 -> 815 ;
816 [label="T6 <= 3.827\nsquared_error = 238.017\nsamples = 22\nvalue = 52.727", fillcolor="#fefaf7"] ;
815 -> 816 ;
817 [label="T6 <= -0.25\nsquared_error = 248.889\nsamples = 15\nvalue = 56.667", fillcolor="#fefaf6"] ;
816 -> 817 ;
818 [label="T5 <= 17.775\nsquared_error = 24.0\nsamples = 5\nvalue = 44.0", fillcolor="#fefbf9"] ;
817 -> 818 ;
819 [label="squared_error = 0.0\nsamples = 3\nvalue = 40.0", fillcolor="#fefbf9"] ;
818 -> 819 ;
820 [label="squared_error = 0.0\nsamples = 2\nvalue = 50.0", fillcolor="#fefaf8"] ;
818 -> 820 ;
821 [label="T1 <= 19.445\nsquared_error = 241.0\nsamples = 10\nvalue = 63.0", fillcolor="#fef9f5"] ;
817 -> 821 ;
822 [label="Total_Temperature <= 16.479\nsquared_error = 143.75\nsamples = 8\nvalue = 57.5", fillcolor="#fef9f6"] ;
821 -> 822 ;
823 [label="T_out <= 0.675\nsquared_error = 100.0\nsamples = 2\nvalue = 70.0", fillcolor="#fef8f4"] ;
822 -> 823 ;
824 [label="squared_error = 0.0\nsamples = 1\nvalue = 60.0", fillcolor="#fef9f6"] ;
823 -> 824 ;
825 [label="squared_error = 0.0\nsamples = 1\nvalue = 80.0", fillcolor="#fdf7f2"] ;
823 -> 825 ;
826 [label="Total_Temperature <= 16.846\nsquared_error = 88.889\nsamples = 6\nvalue = 53.333", fillcolor="#fefaf7"] ;
822 -> 826 ;
827 [label="T5 <= 17.533\nsquared_error = 64.0\nsamples = 5\nvalue = 56.0", fillcolor="#fefaf6"] ;
826 -> 827 ;
828 [label="Total_Temperature <= 16.809\nsquared_error = 25.0\nsamples = 2\nvalue = 65.0", fillcolor="#fef9f5"] ;
827 -> 828 ;
829 [label="squared_error = 0.0\nsamples = 1\nvalue = 70.0", fillcolor="#fef8f4"] ;
828 -> 829 ;
830 [label="squared_error = 0.0\nsamples = 1\nvalue = 60.0", fillcolor="#fef9f6"] ;
828 -> 830 ;
831 [label="squared_error = 0.0\nsamples = 3\nvalue = 50.0", fillcolor="#fefaf8"] ;
827 -> 831 ;
832 [label="squared_error = 0.0\nsamples = 1\nvalue = 40.0", fillcolor="#fefbf9"] ;
826 -> 832 ;
833 [label="T5 <= 17.55\nsquared_error = 25.0\nsamples = 2\nvalue = 85.0", fillcolor="#fdf6f1"] ;
821 -> 833 ;
834 [label="squared_error = 0.0\nsamples = 1\nvalue = 80.0", fillcolor="#fdf7f2"] ;
833 -> 834 ;
835 [label="squared_error = 0.0\nsamples = 1\nvalue = 90.0", fillcolor="#fdf6f0"] ;
833 -> 835 ;
836 [label="T6 <= 4.045\nsquared_error = 110.204\nsamples = 7\nvalue = 44.286", fillcolor="#fefbf9"] ;
816 -> 836 ;
837 [label="Tdewpoint <= -0.733\nsquared_error = 22.222\nsamples = 3\nvalue = 33.333", fillcolor="#fefcfb"] ;
836 -> 837 ;
838 [label="squared_error = 0.0\nsamples = 2\nvalue = 30.0", fillcolor="#fffdfb"] ;
837 -> 838 ;
839 [label="squared_error = 0.0\nsamples = 1\nvalue = 40.0", fillcolor="#fefbf9"] ;
837 -> 839 ;
840 [label="Tdewpoint <= -0.758\nsquared_error = 18.75\nsamples = 4\nvalue = 52.5", fillcolor="#fefaf7"] ;
836 -> 840 ;
841 [label="Tdewpoint <= -0.775\nsquared_error = 25.0\nsamples = 2\nvalue = 55.0", fillcolor="#fefaf7"] ;
840 -> 841 ;
842 [label="squared_error = 0.0\nsamples = 1\nvalue = 50.0", fillcolor="#fefaf8"] ;
841 -> 842 ;
843 [label="squared_error = 0.0\nsamples = 1\nvalue = 60.0", fillcolor="#fef9f6"] ;
841 -> 843 ;
844 [label="squared_error = 0.0\nsamples = 2\nvalue = 50.0", fillcolor="#fefaf8"] ;
840 -> 844 ;
845 [label="T2 <= 16.667\nsquared_error = 143.703\nsamples = 92\nvalue = 42.717", fillcolor="#fefbf9"] ;
815 -> 845 ;
846 [label="T4 <= 18.517\nsquared_error = 89.941\nsamples = 13\nvalue = 31.538", fillcolor="#fefcfb"] ;
845 -> 846 ;
847 [label="Total_Temperature <= 16.95\nsquared_error = 25.0\nsamples = 2\nvalue = 45.0", fillcolor="#fefbf9"] ;
846 -> 847 ;
848 [label="squared_error = 0.0\nsamples = 1\nvalue = 40.0", fillcolor="#fefbf9"] ;
847 -> 848 ;
849 [label="squared_error = 0.0\nsamples = 1\nvalue = 50.0", fillcolor="#fefaf8"] ;
847 -> 849 ;
850 [label="T4 <= 19.775\nsquared_error = 62.81\nsamples = 11\nvalue = 29.091", fillcolor="#fffdfb"] ;
846 -> 850 ;
851 [label="T_out <= 3.925\nsquared_error = 44.444\nsamples = 9\nvalue = 26.667", fillcolor="#fffdfc"] ;
850 -> 851 ;
852 [label="Total_Temperature <= 16.984\nsquared_error = 25.0\nsamples = 8\nvalue = 25.0", fillcolor="#fffdfc"] ;
851 -> 852 ;
853 [label="Total_Temperature <= 16.615\nsquared_error = 22.222\nsamples = 6\nvalue = 26.667", fillcolor="#fffdfc"] ;
852 -> 853 ;
854 [label="Total_Temperature <= 16.566\nsquared_error = 22.222\nsamples = 3\nvalue = 23.333", fillcolor="#fffdfd"] ;
853 -> 854 ;
855 [label="squared_error = 0.0\nsamples = 1\nvalue = 30.0", fillcolor="#fffdfb"] ;
854 -> 855 ;
856 [label="squared_error = 0.0\nsamples = 2\nvalue = 20.0", fillcolor="#fffefd"] ;
854 -> 856 ;
857 [label="squared_error = 0.0\nsamples = 3\nvalue = 30.0", fillcolor="#fffdfb"] ;
853 -> 857 ;
858 [label="squared_error = 0.0\nsamples = 2\nvalue = 20.0", fillcolor="#fffefd"] ;
852 -> 858 ;
859 [label="squared_error = 0.0\nsamples = 1\nvalue = 40.0", fillcolor="#fefbf9"] ;
851 -> 859 ;
860 [label="squared_error = 0.0\nsamples = 2\nvalue = 40.0", fillcolor="#fefbf9"] ;
850 -> 860 ;
861 [label="T_out <= -1.667\nsquared_error = 128.601\nsamples = 79\nvalue = 44.557", fillcolor="#fefbf9"] ;
845 -> 861 ;
862 [label="T9 <= 17.033\nsquared_error = 25.0\nsamples = 2\nvalue = 25.0", fillcolor="#fffdfc"] ;
861 -> 862 ;
863 [label="squared_error = 0.0\nsamples = 1\nvalue = 20.0", fillcolor="#fffefd"] ;
862 -> 863 ;
864 [label="squared_error = 0.0\nsamples = 1\nvalue = 30.0", fillcolor="#fffdfb"] ;
862 -> 864 ;
865 [label="Tdewpoint <= -0.292\nsquared_error = 121.1\nsamples = 77\nvalue = 45.065", fillcolor="#fefbf9"] ;
861 -> 865 ;
866 [label="T_out <= -0.558\nsquared_error = 88.658\nsamples = 31\nvalue = 48.71", fillcolor="#fefaf8"] ;
865 -> 866 ;
867 [label="T2 <= 17.195\nsquared_error = 57.143\nsamples = 7\nvalue = 40.0", fillcolor="#fefbf9"] ;
866 -> 867 ;
868 [label="squared_error = 0.0\nsamples = 2\nvalue = 30.0", fillcolor="#fffdfb"] ;
867 -> 868 ;
869 [label="T_out <= -0.675\nsquared_error = 24.0\nsamples = 5\nvalue = 44.0", fillcolor="#fefbf9"] ;
867 -> 869 ;
870 [label="squared_error = 0.0\nsamples = 3\nvalue = 40.0", fillcolor="#fefbf9"] ;
869 -> 870 ;
871 [label="squared_error = 0.0\nsamples = 2\nvalue = 50.0", fillcolor="#fefaf8"] ;
869 -> 871 ;
872 [label="T6 <= -1.263\nsquared_error = 69.271\nsamples = 24\nvalue = 51.25", fillcolor="#fefaf7"] ;
866 -> 872 ;
873 [label="T_out <= -0.525\nsquared_error = 155.556\nsamples = 3\nvalue = 63.333", fillcolor="#fef9f5"] ;
872 -> 873 ;
874 [label="squared_error = 0.0\nsamples = 1\nvalue = 80.0", fillcolor="#fdf7f2"] ;
873 -> 874 ;
875 [label="Tdewpoint <= -1.933\nsquared_error = 25.0\nsamples = 2\nvalue = 55.0", fillcolor="#fefaf7"] ;
873 -> 875 ;
876 [label="squared_error = 0.0\nsamples = 1\nvalue = 50.0", fillcolor="#fefaf8"] ;
875 -> 876 ;
877 [label="squared_error = 0.0\nsamples = 1\nvalue = 60.0", fillcolor="#fef9f6"] ;
875 -> 877 ;
878 [label="T4 <= 18.715\nsquared_error = 33.107\nsamples = 21\nvalue = 49.524", fillcolor="#fefaf8"] ;
872 -> 878 ;
879 [label="Total_Temperature <= 17.054\nsquared_error = 24.0\nsamples = 5\nvalue = 44.0", fillcolor="#fefbf9"] ;
878 -> 879 ;
880 [label="T5 <= 17.73\nsquared_error = 18.75\nsamples = 4\nvalue = 42.5", fillcolor="#fefbf9"] ;
879 -> 880 ;
881 [label="squared_error = 0.0\nsamples = 3\nvalue = 40.0", fillcolor="#fefbf9"] ;
880 -> 881 ;
882 [label="squared_error = 0.0\nsamples = 1\nvalue = 50.0", fillcolor="#fefaf8"] ;
880 -> 882 ;
883 [label="squared_error = 0.0\nsamples = 1\nvalue = 50.0", fillcolor="#fefaf8"] ;
879 -> 883 ;
884 [label="T5 <= 18.167\nsquared_error = 23.438\nsamples = 16\nvalue = 51.25", fillcolor="#fefaf7"] ;
878 -> 884 ;
885 [label="T4 <= 18.76\nsquared_error = 19.556\nsamples = 15\nvalue = 50.667", fillcolor="#fefaf7"] ;
884 -> 885 ;
886 [label="squared_error = 0.0\nsamples = 1\nvalue = 60.0", fillcolor="#fef9f6"] ;
885 -> 886 ;
887 [label="T_out <= 4.0\nsquared_error = 14.286\nsamples = 14\nvalue = 50.0", fillcolor="#fefaf8"] ;
885 -> 887 ;
888 [label="T_out <= 3.933\nsquared_error = 8.264\nsamples = 11\nvalue = 50.909", fillcolor="#fefaf7"] ;
887 -> 888 ;
889 [label="squared_error = 0.0\nsamples = 10\nvalue = 50.0", fillcolor="#fefaf8"] ;
888 -> 889 ;
890 [label="squared_error = 0.0\nsamples = 1\nvalue = 60.0", fillcolor="#fef9f6"] ;
888 -> 890 ;
891 [label="T_out <= 4.092\nsquared_error = 22.222\nsamples = 3\nvalue = 46.667", fillcolor="#fefbf8"] ;
887 -> 891 ;
892 [label="squared_error = 0.0\nsamples = 1\nvalue = 40.0", fillcolor="#fefbf9"] ;
891 -> 892 ;
893 [label="squared_error = 0.0\nsamples = 2\nvalue = 50.0", fillcolor="#fefaf8"] ;
891 -> 893 ;
894 [label="squared_error = 0.0\nsamples = 1\nvalue = 60.0", fillcolor="#fef9f6"] ;
884 -> 894 ;
895 [label="T1 <= 19.88\nsquared_error = 127.977\nsamples = 46\nvalue = 42.609", fillcolor="#fefbf9"] ;
865 -> 895 ;
896 [label="T4 <= 19.125\nsquared_error = 126.234\nsamples = 41\nvalue = 43.902", fillcolor="#fefbf9"] ;
895 -> 896 ;
897 [label="T_out <= 0.142\nsquared_error = 112.109\nsamples = 32\nvalue = 45.625", fillcolor="#fefbf8"] ;
896 -> 897 ;
898 [label="T6 <= 1.167\nsquared_error = 91.556\nsamples = 15\nvalue = 41.333", fillcolor="#fefbf9"] ;
897 -> 898 ;
899 [label="T6 <= 1.117\nsquared_error = 57.639\nsamples = 12\nvalue = 44.167", fillcolor="#fefbf9"] ;
898 -> 899 ;
900 [label="T6 <= 1.033\nsquared_error = 38.017\nsamples = 11\nvalue = 42.727", fillcolor="#fefbf9"] ;
899 -> 900 ;
901 [label="T4 <= 18.775\nsquared_error = 24.0\nsamples = 5\nvalue = 46.0", fillcolor="#fefbf8"] ;
900 -> 901 ;
902 [label="squared_error = 0.0\nsamples = 2\nvalue = 50.0", fillcolor="#fefaf8"] ;
901 -> 902 ;
903 [label="T4 <= 18.945\nsquared_error = 22.222\nsamples = 3\nvalue = 43.333", fillcolor="#fefbf9"] ;
901 -> 903 ;
904 [label="squared_error = 0.0\nsamples = 2\nvalue = 40.0", fillcolor="#fefbf9"] ;
903 -> 904 ;
905 [label="squared_error = 0.0\nsamples = 1\nvalue = 50.0", fillcolor="#fefaf8"] ;
903 -> 905 ;
906 [label="T_out <= 0.008\nsquared_error = 33.333\nsamples = 6\nvalue = 40.0", fillcolor="#fefbf9"] ;
900 -> 906 ;
907 [label="squared_error = 0.0\nsamples = 1\nvalue = 50.0", fillcolor="#fefaf8"] ;
906 -> 907 ;
908 [label="Tdewpoint <= 0.05\nsquared_error = 16.0\nsamples = 5\nvalue = 38.0", fillcolor="#fefcfa"] ;
906 -> 908 ;
909 [label="squared_error = 0.0\nsamples = 3\nvalue = 40.0", fillcolor="#fefbf9"] ;
908 -> 909 ;
910 [label="T6 <= 1.083\nsquared_error = 25.0\nsamples = 2\nvalue = 35.0", fillcolor="#fefcfa"] ;
908 -> 910 ;
911 [label="squared_error = 0.0\nsamples = 1\nvalue = 30.0", fillcolor="#fffdfb"] ;
910 -> 911 ;
912 [label="squared_error = 0.0\nsamples = 1\nvalue = 40.0", fillcolor="#fefbf9"] ;
910 -> 912 ;
913 [label="squared_error = 0.0\nsamples = 1\nvalue = 60.0", fillcolor="#fef9f6"] ;
899 -> 913 ;
914 [label="Tdewpoint <= 0.042\nsquared_error = 66.667\nsamples = 3\nvalue = 30.0", fillcolor="#fffdfb"] ;
898 -> 914 ;
915 [label="squared_error = 0.0\nsamples = 1\nvalue = 40.0", fillcolor="#fefbf9"] ;
914 -> 915 ;
916 [label="T2 <= 16.945\nsquared_error = 25.0\nsamples = 2\nvalue = 25.0", fillcolor="#fffdfc"] ;
914 -> 916 ;
917 [label="squared_error = 0.0\nsamples = 1\nvalue = 20.0", fillcolor="#fffefd"] ;
916 -> 917 ;
918 [label="squared_error = 0.0\nsamples = 1\nvalue = 30.0", fillcolor="#fffdfb"] ;
916 -> 918 ;
919 [label="T2 <= 17.34\nsquared_error = 99.654\nsamples = 17\nvalue = 49.412", fillcolor="#fefaf8"] ;
897 -> 919 ;
920 [label="Total_Temperature <= 16.436\nsquared_error = 56.198\nsamples = 11\nvalue = 52.727", fillcolor="#fefaf7"] ;
919 -> 920 ;
921 [label="squared_error = 0.0\nsamples = 1\nvalue = 40.0", fillcolor="#fefbf9"] ;
920 -> 921 ;
922 [label="T9 <= 17.671\nsquared_error = 44.0\nsamples = 10\nvalue = 54.0", fillcolor="#fefaf7"] ;
920 -> 922 ;
923 [label="Total_Temperature <= 16.691\nsquared_error = 24.691\nsamples = 9\nvalue = 55.556", fillcolor="#fefaf7"] ;
922 -> 923 ;
924 [label="Tdewpoint <= 0.425\nsquared_error = 20.408\nsamples = 7\nvalue = 57.143", fillcolor="#fef9f6"] ;
923 -> 924 ;
